digraph Tree {
node [shape=box, style="rounded", color="black", fontname=helvetica] ;
edge [fontname=helvetica] ;
0 [label="Health <= 67.8\nmse = 1.3\nsamples = 791\nvalue = 5.4"] ;
1 [label="Health <= 60.5\nmse = 0.8\nsamples = 581\nvalue = 4.9"] ;
0 -> 1 [labeldistance=2.5, labelangle=45, headlabel="True"] ;
2 [label="GDP <= 8.0\nmse = 0.4\nsamples = 277\nvalue = 4.3"] ;
1 -> 2 ;
3 [label="Support <= 0.6\nmse = 0.4\nsamples = 156\nvalue = 4.1"] ;
2 -> 3 ;
4 [label="GDP <= 7.6\nmse = 0.4\nsamples = 34\nvalue = 3.7"] ;
3 -> 4 ;
5 [label="Corruption <= 0.7\nmse = 0.3\nsamples = 30\nvalue = 3.6"] ;
4 -> 5 ;
6 [label="Freedom <= 0.8\nmse = 0.2\nsamples = 9\nvalue = 4.0"] ;
5 -> 6 ;
7 [label="Freedom <= 0.6\nmse = 0.1\nsamples = 4\nvalue = 4.3"] ;
6 -> 7 ;
8 [label="Freedom <= 0.5\nmse = 0.0\nsamples = 2\nvalue = 3.9"] ;
7 -> 8 ;
9 [label="mse = 0.0\nsamples = 1\nvalue = 3.8"] ;
8 -> 9 ;
10 [label="mse = -0.0\nsamples = 1\nvalue = 3.9"] ;
8 -> 10 ;
11 [label="Corruption <= 0.5\nmse = 0.0\nsamples = 2\nvalue = 4.6"] ;
7 -> 11 ;
12 [label="mse = 0.0\nsamples = 1\nvalue = 4.4"] ;
11 -> 12 ;
13 [label="mse = 0.0\nsamples = 1\nvalue = 4.8"] ;
11 -> 13 ;
14 [label="Health <= 59.4\nmse = 0.1\nsamples = 5\nvalue = 3.7"] ;
6 -> 14 ;
15 [label="Support <= 0.6\nmse = 0.0\nsamples = 4\nvalue = 3.9"] ;
14 -> 15 ;
16 [label="GDP <= 7.2\nmse = 0.0\nsamples = 3\nvalue = 3.8"] ;
15 -> 16 ;
17 [label="Corruption <= 0.7\nmse = 0.0\nsamples = 2\nvalue = 3.8"] ;
16 -> 17 ;
18 [label="mse = 0.0\nsamples = 1\nvalue = 3.8"] ;
17 -> 18 ;
19 [label="mse = 0.0\nsamples = 1\nvalue = 3.9"] ;
17 -> 19 ;
20 [label="mse = -0.0\nsamples = 1\nvalue = 3.8"] ;
16 -> 20 ;
21 [label="mse = 0.0\nsamples = 1\nvalue = 4.0"] ;
15 -> 21 ;
22 [label="mse = 0.0\nsamples = 1\nvalue = 3.1"] ;
14 -> 22 ;
23 [label="Freedom <= 0.7\nmse = 0.2\nsamples = 21\nvalue = 3.4"] ;
5 -> 23 ;
24 [label="Support <= 0.5\nmse = 0.2\nsamples = 12\nvalue = 3.1"] ;
23 -> 24 ;
25 [label="GDP <= 6.8\nmse = 0.0\nsamples = 7\nvalue = 2.9"] ;
24 -> 25 ;
26 [label="mse = 0.0\nsamples = 1\nvalue = 2.7"] ;
25 -> 26 ;
27 [label="Generosity <= -0.0\nmse = 0.0\nsamples = 6\nvalue = 3.0"] ;
25 -> 27 ;
28 [label="GDP <= 7.4\nmse = 0.0\nsamples = 4\nvalue = 2.8"] ;
27 -> 28 ;
29 [label="Support <= 0.4\nmse = 0.0\nsamples = 2\nvalue = 2.9"] ;
28 -> 29 ;
30 [label="mse = 0.0\nsamples = 1\nvalue = 2.9"] ;
29 -> 30 ;
31 [label="mse = 0.0\nsamples = 1\nvalue = 2.8"] ;
29 -> 31 ;
32 [label="Freedom <= 0.4\nmse = 0.0\nsamples = 2\nvalue = 2.7"] ;
28 -> 32 ;
33 [label="mse = 0.0\nsamples = 1\nvalue = 2.7"] ;
32 -> 33 ;
34 [label="mse = 0.0\nsamples = 1\nvalue = 2.7"] ;
32 -> 34 ;
35 [label="Health <= 51.1\nmse = 0.0\nsamples = 2\nvalue = 3.2"] ;
27 -> 35 ;
36 [label="mse = 0.0\nsamples = 1\nvalue = 3.2"] ;
35 -> 36 ;
37 [label="mse = 0.0\nsamples = 1\nvalue = 3.1"] ;
35 -> 37 ;
38 [label="Generosity <= -0.0\nmse = 0.2\nsamples = 5\nvalue = 3.7"] ;
24 -> 38 ;
39 [label="mse = 0.0\nsamples = 1\nvalue = 2.9"] ;
38 -> 39 ;
40 [label="Health <= 51.7\nmse = 0.0\nsamples = 4\nvalue = 3.9"] ;
38 -> 40 ;
41 [label="Support <= 0.5\nmse = 0.0\nsamples = 2\nvalue = 3.7"] ;
40 -> 41 ;
42 [label="mse = 0.0\nsamples = 1\nvalue = 3.7"] ;
41 -> 42 ;
43 [label="mse = 0.0\nsamples = 1\nvalue = 3.8"] ;
41 -> 43 ;
44 [label="Health <= 53.1\nmse = 0.0\nsamples = 2\nvalue = 4.1"] ;
40 -> 44 ;
45 [label="mse = 0.0\nsamples = 1\nvalue = 4.2"] ;
44 -> 45 ;
46 [label="mse = -0.0\nsamples = 1\nvalue = 4.0"] ;
44 -> 46 ;
47 [label="Corruption <= 0.8\nmse = 0.1\nsamples = 9\nvalue = 3.6"] ;
23 -> 47 ;
48 [label="Generosity <= -0.0\nmse = 0.0\nsamples = 3\nvalue = 3.4"] ;
47 -> 48 ;
49 [label="mse = 0.0\nsamples = 1\nvalue = 3.2"] ;
48 -> 49 ;
50 [label="Freedom <= 0.8\nmse = 0.0\nsamples = 2\nvalue = 3.4"] ;
48 -> 50 ;
51 [label="mse = 0.0\nsamples = 1\nvalue = 3.5"] ;
50 -> 51 ;
52 [label="mse = 0.0\nsamples = 1\nvalue = 3.4"] ;
50 -> 52 ;
53 [label="Support <= 0.5\nmse = 0.0\nsamples = 6\nvalue = 3.9"] ;
47 -> 53 ;
54 [label="Health <= 50.9\nmse = 0.0\nsamples = 3\nvalue = 3.7"] ;
53 -> 54 ;
55 [label="mse = 0.0\nsamples = 1\nvalue = 3.7"] ;
54 -> 55 ;
56 [label="Generosity <= 0.0\nmse = 0.0\nsamples = 2\nvalue = 3.6"] ;
54 -> 56 ;
57 [label="mse = 0.0\nsamples = 1\nvalue = 3.6"] ;
56 -> 57 ;
58 [label="mse = 0.0\nsamples = 1\nvalue = 3.7"] ;
56 -> 58 ;
59 [label="Support <= 0.5\nmse = 0.0\nsamples = 3\nvalue = 4.0"] ;
53 -> 59 ;
60 [label="mse = 0.0\nsamples = 1\nvalue = 3.9"] ;
59 -> 60 ;
61 [label="Corruption <= 0.8\nmse = 0.0\nsamples = 2\nvalue = 4.0"] ;
59 -> 61 ;
62 [label="mse = 0.0\nsamples = 1\nvalue = 4.0"] ;
61 -> 62 ;
63 [label="mse = 0.0\nsamples = 1\nvalue = 4.0"] ;
61 -> 63 ;
64 [label="Support <= 0.4\nmse = 0.0\nsamples = 4\nvalue = 5.0"] ;
4 -> 64 ;
65 [label="mse = 0.0\nsamples = 1\nvalue = 4.9"] ;
64 -> 65 ;
66 [label="Generosity <= -0.0\nmse = 0.0\nsamples = 3\nvalue = 5.0"] ;
64 -> 66 ;
67 [label="Freedom <= 0.6\nmse = 0.0\nsamples = 2\nvalue = 5.1"] ;
66 -> 67 ;
68 [label="mse = 0.0\nsamples = 1\nvalue = 5.1"] ;
67 -> 68 ;
69 [label="mse = 0.0\nsamples = 1\nvalue = 5.1"] ;
67 -> 69 ;
70 [label="mse = -0.0\nsamples = 1\nvalue = 5.0"] ;
66 -> 70 ;
71 [label="Generosity <= -0.1\nmse = 0.3\nsamples = 122\nvalue = 4.2"] ;
3 -> 71 ;
72 [label="Freedom <= 0.6\nmse = 0.1\nsamples = 5\nvalue = 3.3"] ;
71 -> 72 ;
73 [label="Corruption <= 0.8\nmse = 0.0\nsamples = 2\nvalue = 3.0"] ;
72 -> 73 ;
74 [label="mse = 0.0\nsamples = 1\nvalue = 3.1"] ;
73 -> 74 ;
75 [label="mse = 0.0\nsamples = 1\nvalue = 3.0"] ;
73 -> 75 ;
76 [label="Generosity <= -0.1\nmse = 0.0\nsamples = 3\nvalue = 3.7"] ;
72 -> 76 ;
77 [label="Health <= 51.9\nmse = 0.0\nsamples = 2\nvalue = 3.8"] ;
76 -> 77 ;
78 [label="mse = 0.0\nsamples = 1\nvalue = 3.8"] ;
77 -> 78 ;
79 [label="mse = -0.0\nsamples = 1\nvalue = 3.8"] ;
77 -> 79 ;
80 [label="mse = 0.0\nsamples = 1\nvalue = 3.5"] ;
76 -> 80 ;
81 [label="Generosity <= -0.0\nmse = 0.2\nsamples = 117\nvalue = 4.2"] ;
71 -> 81 ;
82 [label="Generosity <= -0.1\nmse = 0.3\nsamples = 28\nvalue = 4.0"] ;
81 -> 82 ;
83 [label="Generosity <= -0.1\nmse = 0.1\nsamples = 8\nvalue = 4.5"] ;
82 -> 83 ;
84 [label="Health <= 57.7\nmse = 0.1\nsamples = 4\nvalue = 4.2"] ;
83 -> 84 ;
85 [label="Health <= 46.2\nmse = 0.0\nsamples = 3\nvalue = 4.0"] ;
84 -> 85 ;
86 [label="mse = 0.0\nsamples = 1\nvalue = 4.2"] ;
85 -> 86 ;
87 [label="Generosity <= -0.1\nmse = 0.0\nsamples = 2\nvalue = 3.9"] ;
85 -> 87 ;
88 [label="mse = 0.0\nsamples = 1\nvalue = 4.0"] ;
87 -> 88 ;
89 [label="mse = 0.0\nsamples = 1\nvalue = 3.8"] ;
87 -> 89 ;
90 [label="mse = -0.0\nsamples = 1\nvalue = 4.6"] ;
84 -> 90 ;
91 [label="Freedom <= 0.5\nmse = 0.0\nsamples = 4\nvalue = 4.8"] ;
83 -> 91 ;
92 [label="mse = 0.0\nsamples = 1\nvalue = 5.0"] ;
91 -> 92 ;
93 [label="Freedom <= 0.7\nmse = 0.0\nsamples = 3\nvalue = 4.7"] ;
91 -> 93 ;
94 [label="Generosity <= -0.1\nmse = 0.0\nsamples = 2\nvalue = 4.7"] ;
93 -> 94 ;
95 [label="mse = 0.0\nsamples = 1\nvalue = 4.7"] ;
94 -> 95 ;
96 [label="mse = 0.0\nsamples = 1\nvalue = 4.7"] ;
94 -> 96 ;
97 [label="mse = 0.0\nsamples = 1\nvalue = 4.8"] ;
93 -> 97 ;
98 [label="Corruption <= 0.8\nmse = 0.2\nsamples = 20\nvalue = 3.8"] ;
82 -> 98 ;
99 [label="Health <= 52.8\nmse = 0.1\nsamples = 7\nvalue = 4.1"] ;
98 -> 99 ;
100 [label="Health <= 51.5\nmse = 0.0\nsamples = 5\nvalue = 4.0"] ;
99 -> 100 ;
101 [label="Support <= 0.7\nmse = 0.0\nsamples = 4\nvalue = 4.0"] ;
100 -> 101 ;
102 [label="mse = 0.0\nsamples = 1\nvalue = 4.3"] ;
101 -> 102 ;
103 [label="Freedom <= 0.6\nmse = 0.0\nsamples = 3\nvalue = 4.0"] ;
101 -> 103 ;
104 [label="mse = 0.0\nsamples = 1\nvalue = 4.0"] ;
103 -> 104 ;
105 [label="Generosity <= -0.1\nmse = 0.0\nsamples = 2\nvalue = 3.9"] ;
103 -> 105 ;
106 [label="mse = 0.0\nsamples = 1\nvalue = 4.0"] ;
105 -> 106 ;
107 [label="mse = -0.0\nsamples = 1\nvalue = 3.9"] ;
105 -> 107 ;
108 [label="mse = 0.0\nsamples = 1\nvalue = 3.6"] ;
100 -> 108 ;
109 [label="Generosity <= -0.1\nmse = 0.0\nsamples = 2\nvalue = 4.4"] ;
99 -> 109 ;
110 [label="mse = 0.0\nsamples = 1\nvalue = 4.4"] ;
109 -> 110 ;
111 [label="mse = 0.0\nsamples = 1\nvalue = 4.4"] ;
109 -> 111 ;
112 [label="GDP <= 7.2\nmse = 0.1\nsamples = 13\nvalue = 3.6"] ;
98 -> 112 ;
113 [label="mse = 0.0\nsamples = 1\nvalue = 4.4"] ;
112 -> 113 ;
114 [label="Generosity <= -0.1\nmse = 0.1\nsamples = 12\nvalue = 3.6"] ;
112 -> 114 ;
115 [label="mse = 0.0\nsamples = 1\nvalue = 3.2"] ;
114 -> 115 ;
116 [label="Health <= 51.9\nmse = 0.1\nsamples = 11\nvalue = 3.7"] ;
114 -> 116 ;
117 [label="Health <= 51.0\nmse = 0.2\nsamples = 4\nvalue = 4.0"] ;
116 -> 117 ;
118 [label="Generosity <= -0.1\nmse = 0.1\nsamples = 3\nvalue = 3.8"] ;
117 -> 118 ;
119 [label="mse = 0.0\nsamples = 1\nvalue = 3.5"] ;
118 -> 119 ;
120 [label="Health <= 46.1\nmse = 0.0\nsamples = 2\nvalue = 3.9"] ;
118 -> 120 ;
121 [label="mse = 0.0\nsamples = 1\nvalue = 3.8"] ;
120 -> 121 ;
122 [label="mse = -0.0\nsamples = 1\nvalue = 4.0"] ;
120 -> 122 ;
123 [label="mse = 0.0\nsamples = 1\nvalue = 4.7"] ;
117 -> 123 ;
124 [label="Support <= 0.6\nmse = 0.0\nsamples = 7\nvalue = 3.6"] ;
116 -> 124 ;
125 [label="Freedom <= 0.6\nmse = 0.0\nsamples = 2\nvalue = 3.5"] ;
124 -> 125 ;
126 [label="mse = 0.0\nsamples = 1\nvalue = 3.5"] ;
125 -> 126 ;
127 [label="mse = -0.0\nsamples = 1\nvalue = 3.5"] ;
125 -> 127 ;
128 [label="Freedom <= 0.6\nmse = 0.0\nsamples = 5\nvalue = 3.6"] ;
124 -> 128 ;
129 [label="Freedom <= 0.5\nmse = 0.0\nsamples = 2\nvalue = 3.6"] ;
128 -> 129 ;
130 [label="mse = 0.0\nsamples = 1\nvalue = 3.6"] ;
129 -> 130 ;
131 [label="mse = -0.0\nsamples = 1\nvalue = 3.6"] ;
129 -> 131 ;
132 [label="Freedom <= 0.7\nmse = 0.0\nsamples = 3\nvalue = 3.6"] ;
128 -> 132 ;
133 [label="Corruption <= 0.9\nmse = 0.0\nsamples = 2\nvalue = 3.7"] ;
132 -> 133 ;
134 [label="mse = 0.0\nsamples = 1\nvalue = 3.7"] ;
133 -> 134 ;
135 [label="mse = 0.0\nsamples = 1\nvalue = 3.7"] ;
133 -> 135 ;
136 [label="mse = -0.0\nsamples = 1\nvalue = 3.6"] ;
132 -> 136 ;
137 [label="Freedom <= 0.9\nmse = 0.2\nsamples = 89\nvalue = 4.3"] ;
81 -> 137 ;
138 [label="Generosity <= -0.0\nmse = 0.2\nsamples = 85\nvalue = 4.3"] ;
137 -> 138 ;
139 [label="Health <= 53.5\nmse = 0.0\nsamples = 2\nvalue = 4.9"] ;
138 -> 139 ;
140 [label="mse = -0.0\nsamples = 1\nvalue = 5.0"] ;
139 -> 140 ;
141 [label="mse = -0.0\nsamples = 1\nvalue = 4.7"] ;
139 -> 141 ;
142 [label="Support <= 0.6\nmse = 0.2\nsamples = 83\nvalue = 4.3"] ;
138 -> 142 ;
143 [label="GDP <= 7.1\nmse = 0.3\nsamples = 11\nvalue = 4.5"] ;
142 -> 143 ;
144 [label="Generosity <= 0.1\nmse = 0.6\nsamples = 4\nvalue = 4.1"] ;
143 -> 144 ;
145 [label="Health <= 52.5\nmse = 0.3\nsamples = 3\nvalue = 4.4"] ;
144 -> 145 ;
146 [label="Health <= 50.7\nmse = 0.0\nsamples = 2\nvalue = 4.1"] ;
145 -> 146 ;
147 [label="mse = 0.0\nsamples = 1\nvalue = 4.2"] ;
146 -> 147 ;
148 [label="mse = 0.0\nsamples = 1\nvalue = 3.9"] ;
146 -> 148 ;
149 [label="mse = -0.0\nsamples = 1\nvalue = 5.2"] ;
145 -> 149 ;
150 [label="mse = -0.0\nsamples = 1\nvalue = 3.0"] ;
144 -> 150 ;
151 [label="Generosity <= 0.0\nmse = 0.1\nsamples = 7\nvalue = 4.7"] ;
143 -> 151 ;
152 [label="Support <= 0.6\nmse = 0.0\nsamples = 2\nvalue = 4.0"] ;
151 -> 152 ;
153 [label="mse = 0.0\nsamples = 1\nvalue = 4.0"] ;
152 -> 153 ;
154 [label="mse = 0.0\nsamples = 1\nvalue = 4.0"] ;
152 -> 154 ;
155 [label="Generosity <= 0.1\nmse = 0.0\nsamples = 5\nvalue = 4.8"] ;
151 -> 155 ;
156 [label="GDP <= 7.3\nmse = 0.0\nsamples = 3\nvalue = 4.7"] ;
155 -> 156 ;
157 [label="mse = 0.0\nsamples = 1\nvalue = 4.9"] ;
156 -> 157 ;
158 [label="Corruption <= 0.8\nmse = 0.0\nsamples = 2\nvalue = 4.6"] ;
156 -> 158 ;
159 [label="mse = 0.0\nsamples = 1\nvalue = 4.6"] ;
158 -> 159 ;
160 [label="mse = 0.0\nsamples = 1\nvalue = 4.6"] ;
158 -> 160 ;
161 [label="Support <= 0.6\nmse = 0.0\nsamples = 2\nvalue = 4.9"] ;
155 -> 161 ;
162 [label="mse = 0.0\nsamples = 1\nvalue = 4.8"] ;
161 -> 162 ;
163 [label="mse = 0.0\nsamples = 1\nvalue = 5.0"] ;
161 -> 163 ;
164 [label="Support <= 0.7\nmse = 0.2\nsamples = 72\nvalue = 4.3"] ;
142 -> 164 ;
165 [label="GDP <= 7.9\nmse = 0.3\nsamples = 15\nvalue = 4.0"] ;
164 -> 165 ;
166 [label="Freedom <= 0.5\nmse = 0.2\nsamples = 13\nvalue = 4.2"] ;
165 -> 166 ;
167 [label="GDP <= 7.3\nmse = 0.0\nsamples = 2\nvalue = 3.7"] ;
166 -> 167 ;
168 [label="mse = 0.0\nsamples = 1\nvalue = 3.7"] ;
167 -> 168 ;
169 [label="mse = 0.0\nsamples = 1\nvalue = 3.6"] ;
167 -> 169 ;
170 [label="Corruption <= 0.8\nmse = 0.2\nsamples = 11\nvalue = 4.3"] ;
166 -> 170 ;
171 [label="Corruption <= 0.7\nmse = 0.2\nsamples = 4\nvalue = 4.0"] ;
170 -> 171 ;
172 [label="GDP <= 7.0\nmse = 0.1\nsamples = 2\nvalue = 4.4"] ;
171 -> 172 ;
173 [label="mse = 0.0\nsamples = 1\nvalue = 4.1"] ;
172 -> 173 ;
174 [label="mse = 0.0\nsamples = 1\nvalue = 4.6"] ;
172 -> 174 ;
175 [label="Generosity <= 0.0\nmse = 0.0\nsamples = 2\nvalue = 3.6"] ;
171 -> 175 ;
176 [label="mse = 0.0\nsamples = 1\nvalue = 3.4"] ;
175 -> 176 ;
177 [label="mse = 0.0\nsamples = 1\nvalue = 3.7"] ;
175 -> 177 ;
178 [label="GDP <= 7.5\nmse = 0.1\nsamples = 7\nvalue = 4.4"] ;
170 -> 178 ;
179 [label="Generosity <= 0.0\nmse = 0.0\nsamples = 4\nvalue = 4.2"] ;
178 -> 179 ;
180 [label="Health <= 58.9\nmse = 0.0\nsamples = 2\nvalue = 4.1"] ;
179 -> 180 ;
181 [label="mse = 0.0\nsamples = 1\nvalue = 4.1"] ;
180 -> 181 ;
182 [label="mse = 0.0\nsamples = 1\nvalue = 4.1"] ;
180 -> 182 ;
183 [label="GDP <= 7.4\nmse = 0.0\nsamples = 2\nvalue = 4.3"] ;
179 -> 183 ;
184 [label="mse = 0.0\nsamples = 1\nvalue = 4.3"] ;
183 -> 184 ;
185 [label="mse = -0.0\nsamples = 1\nvalue = 4.3"] ;
183 -> 185 ;
186 [label="Support <= 0.7\nmse = 0.0\nsamples = 3\nvalue = 4.7"] ;
178 -> 186 ;
187 [label="Corruption <= 0.8\nmse = 0.0\nsamples = 2\nvalue = 4.6"] ;
186 -> 187 ;
188 [label="mse = 0.0\nsamples = 1\nvalue = 4.6"] ;
187 -> 188 ;
189 [label="mse = 0.0\nsamples = 1\nvalue = 4.6"] ;
187 -> 189 ;
190 [label="mse = -0.0\nsamples = 1\nvalue = 4.9"] ;
186 -> 190 ;
191 [label="Freedom <= 0.8\nmse = 0.1\nsamples = 2\nvalue = 3.3"] ;
165 -> 191 ;
192 [label="mse = 0.0\nsamples = 1\nvalue = 2.9"] ;
191 -> 192 ;
193 [label="mse = -0.0\nsamples = 1\nvalue = 3.4"] ;
191 -> 193 ;
194 [label="Health <= 56.0\nmse = 0.2\nsamples = 57\nvalue = 4.3"] ;
164 -> 194 ;
195 [label="Generosity <= 0.3\nmse = 0.2\nsamples = 41\nvalue = 4.3"] ;
194 -> 195 ;
196 [label="Generosity <= 0.2\nmse = 0.1\nsamples = 40\nvalue = 4.3"] ;
195 -> 196 ;
197 [label="Generosity <= -0.0\nmse = 0.1\nsamples = 36\nvalue = 4.2"] ;
196 -> 197 ;
198 [label="Generosity <= -0.0\nmse = 0.0\nsamples = 9\nvalue = 4.4"] ;
197 -> 198 ;
199 [label="Generosity <= -0.0\nmse = 0.0\nsamples = 8\nvalue = 4.4"] ;
198 -> 199 ;
200 [label="mse = 0.0\nsamples = 1\nvalue = 4.0"] ;
199 -> 200 ;
201 [label="Support <= 0.8\nmse = 0.0\nsamples = 7\nvalue = 4.4"] ;
199 -> 201 ;
202 [label="GDP <= 8.0\nmse = 0.0\nsamples = 6\nvalue = 4.4"] ;
201 -> 202 ;
203 [label="Generosity <= -0.0\nmse = 0.0\nsamples = 5\nvalue = 4.4"] ;
202 -> 203 ;
204 [label="Corruption <= 0.9\nmse = 0.0\nsamples = 3\nvalue = 4.4"] ;
203 -> 204 ;
205 [label="Freedom <= 0.8\nmse = 0.0\nsamples = 2\nvalue = 4.4"] ;
204 -> 205 ;
206 [label="mse = 0.0\nsamples = 1\nvalue = 4.4"] ;
205 -> 206 ;
207 [label="mse = -0.0\nsamples = 1\nvalue = 4.4"] ;
205 -> 207 ;
208 [label="mse = -0.0\nsamples = 1\nvalue = 4.3"] ;
204 -> 208 ;
209 [label="Freedom <= 0.8\nmse = 0.0\nsamples = 2\nvalue = 4.3"] ;
203 -> 209 ;
210 [label="mse = 0.0\nsamples = 1\nvalue = 4.3"] ;
209 -> 210 ;
211 [label="mse = 0.0\nsamples = 1\nvalue = 4.3"] ;
209 -> 211 ;
212 [label="mse = 0.0\nsamples = 1\nvalue = 4.2"] ;
202 -> 212 ;
213 [label="mse = -0.0\nsamples = 1\nvalue = 4.6"] ;
201 -> 213 ;
214 [label="mse = -0.0\nsamples = 1\nvalue = 4.8"] ;
198 -> 214 ;
215 [label="GDP <= 8.0\nmse = 0.2\nsamples = 27\nvalue = 4.2"] ;
197 -> 215 ;
216 [label="GDP <= 7.5\nmse = 0.1\nsamples = 25\nvalue = 4.1"] ;
215 -> 216 ;
217 [label="Freedom <= 0.7\nmse = 0.1\nsamples = 19\nvalue = 4.2"] ;
216 -> 217 ;
218 [label="GDP <= 6.5\nmse = 0.0\nsamples = 13\nvalue = 4.3"] ;
217 -> 218 ;
219 [label="mse = 0.0\nsamples = 1\nvalue = 4.0"] ;
218 -> 219 ;
220 [label="GDP <= 7.3\nmse = 0.0\nsamples = 12\nvalue = 4.4"] ;
218 -> 220 ;
221 [label="Support <= 0.8\nmse = 0.0\nsamples = 5\nvalue = 4.5"] ;
220 -> 221 ;
222 [label="mse = 0.0\nsamples = 1\nvalue = 4.7"] ;
221 -> 222 ;
223 [label="Generosity <= -0.0\nmse = 0.0\nsamples = 4\nvalue = 4.5"] ;
221 -> 223 ;
224 [label="mse = 0.0\nsamples = 1\nvalue = 4.5"] ;
223 -> 224 ;
225 [label="Generosity <= 0.0\nmse = 0.0\nsamples = 3\nvalue = 4.5"] ;
223 -> 225 ;
226 [label="Support <= 0.8\nmse = 0.0\nsamples = 2\nvalue = 4.4"] ;
225 -> 226 ;
227 [label="mse = 0.0\nsamples = 1\nvalue = 4.4"] ;
226 -> 227 ;
228 [label="mse = -0.0\nsamples = 1\nvalue = 4.5"] ;
226 -> 228 ;
229 [label="mse = -0.0\nsamples = 1\nvalue = 4.5"] ;
225 -> 229 ;
230 [label="Support <= 0.7\nmse = 0.0\nsamples = 7\nvalue = 4.3"] ;
220 -> 230 ;
231 [label="mse = 0.0\nsamples = 1\nvalue = 4.7"] ;
230 -> 231 ;
232 [label="Support <= 0.8\nmse = 0.0\nsamples = 6\nvalue = 4.3"] ;
230 -> 232 ;
233 [label="Corruption <= 0.9\nmse = 0.0\nsamples = 2\nvalue = 4.0"] ;
232 -> 233 ;
234 [label="mse = 0.0\nsamples = 1\nvalue = 4.0"] ;
233 -> 234 ;
235 [label="mse = 0.0\nsamples = 1\nvalue = 4.1"] ;
233 -> 235 ;
236 [label="Health <= 52.5\nmse = 0.0\nsamples = 4\nvalue = 4.3"] ;
232 -> 236 ;
237 [label="GDP <= 7.5\nmse = 0.0\nsamples = 2\nvalue = 4.4"] ;
236 -> 237 ;
238 [label="mse = 0.0\nsamples = 1\nvalue = 4.3"] ;
237 -> 238 ;
239 [label="mse = -0.0\nsamples = 1\nvalue = 4.4"] ;
237 -> 239 ;
240 [label="Corruption <= 0.8\nmse = 0.0\nsamples = 2\nvalue = 4.2"] ;
236 -> 240 ;
241 [label="mse = 0.0\nsamples = 1\nvalue = 4.2"] ;
240 -> 241 ;
242 [label="mse = -0.0\nsamples = 1\nvalue = 4.2"] ;
240 -> 242 ;
243 [label="GDP <= 7.3\nmse = 0.1\nsamples = 6\nvalue = 4.0"] ;
217 -> 243 ;
244 [label="Freedom <= 0.8\nmse = 0.0\nsamples = 2\nvalue = 4.2"] ;
243 -> 244 ;
245 [label="mse = 0.0\nsamples = 1\nvalue = 4.1"] ;
244 -> 245 ;
246 [label="mse = 0.0\nsamples = 1\nvalue = 4.3"] ;
244 -> 246 ;
247 [label="Health <= 54.1\nmse = 0.1\nsamples = 4\nvalue = 3.8"] ;
243 -> 247 ;
248 [label="GDP <= 7.4\nmse = 0.0\nsamples = 3\nvalue = 3.6"] ;
247 -> 248 ;
249 [label="mse = 0.0\nsamples = 1\nvalue = 3.3"] ;
248 -> 249 ;
250 [label="Support <= 0.8\nmse = 0.0\nsamples = 2\nvalue = 3.7"] ;
248 -> 250 ;
251 [label="mse = 0.0\nsamples = 1\nvalue = 3.8"] ;
250 -> 251 ;
252 [label="mse = 0.0\nsamples = 1\nvalue = 3.7"] ;
250 -> 252 ;
253 [label="mse = 0.0\nsamples = 1\nvalue = 4.2"] ;
247 -> 253 ;
254 [label="Support <= 0.8\nmse = 0.1\nsamples = 6\nvalue = 3.7"] ;
216 -> 254 ;
255 [label="Support <= 0.8\nmse = 0.1\nsamples = 5\nvalue = 3.9"] ;
254 -> 255 ;
256 [label="Corruption <= 0.9\nmse = 0.0\nsamples = 4\nvalue = 3.7"] ;
255 -> 256 ;
257 [label="Support <= 0.8\nmse = 0.0\nsamples = 3\nvalue = 3.7"] ;
256 -> 257 ;
258 [label="Freedom <= 0.6\nmse = 0.0\nsamples = 2\nvalue = 3.7"] ;
257 -> 258 ;
259 [label="mse = 0.0\nsamples = 1\nvalue = 3.7"] ;
258 -> 259 ;
260 [label="mse = 0.0\nsamples = 1\nvalue = 3.7"] ;
258 -> 260 ;
261 [label="mse = 0.0\nsamples = 1\nvalue = 3.7"] ;
257 -> 261 ;
262 [label="mse = -0.0\nsamples = 1\nvalue = 3.9"] ;
256 -> 262 ;
263 [label="mse = 0.0\nsamples = 1\nvalue = 4.3"] ;
255 -> 263 ;
264 [label="mse = -0.0\nsamples = 1\nvalue = 3.2"] ;
254 -> 264 ;
265 [label="Corruption <= 0.7\nmse = 0.1\nsamples = 2\nvalue = 4.8"] ;
215 -> 265 ;
266 [label="mse = 0.0\nsamples = 1\nvalue = 5.0"] ;
265 -> 266 ;
267 [label="mse = 0.0\nsamples = 1\nvalue = 4.6"] ;
265 -> 267 ;
268 [label="GDP <= 7.2\nmse = 0.1\nsamples = 4\nvalue = 4.6"] ;
196 -> 268 ;
269 [label="mse = 0.0\nsamples = 1\nvalue = 5.1"] ;
268 -> 269 ;
270 [label="GDP <= 7.8\nmse = 0.0\nsamples = 3\nvalue = 4.5"] ;
268 -> 270 ;
271 [label="Corruption <= 0.8\nmse = 0.0\nsamples = 2\nvalue = 4.4"] ;
270 -> 271 ;
272 [label="mse = 0.0\nsamples = 1\nvalue = 4.4"] ;
271 -> 272 ;
273 [label="mse = -0.0\nsamples = 1\nvalue = 4.4"] ;
271 -> 273 ;
274 [label="mse = -0.0\nsamples = 1\nvalue = 4.5"] ;
270 -> 274 ;
275 [label="mse = -0.0\nsamples = 1\nvalue = 3.4"] ;
195 -> 275 ;
276 [label="GDP <= 7.2\nmse = 0.1\nsamples = 16\nvalue = 4.6"] ;
194 -> 276 ;
277 [label="mse = 0.0\nsamples = 1\nvalue = 5.1"] ;
276 -> 277 ;
278 [label="Health <= 56.4\nmse = 0.1\nsamples = 15\nvalue = 4.5"] ;
276 -> 278 ;
279 [label="mse = 0.0\nsamples = 1\nvalue = 4.9"] ;
278 -> 279 ;
280 [label="Freedom <= 0.8\nmse = 0.1\nsamples = 14\nvalue = 4.5"] ;
278 -> 280 ;
281 [label="Corruption <= 0.9\nmse = 0.1\nsamples = 10\nvalue = 4.4"] ;
280 -> 281 ;
282 [label="Health <= 57.3\nmse = 0.0\nsamples = 7\nvalue = 4.3"] ;
281 -> 282 ;
283 [label="mse = 0.0\nsamples = 1\nvalue = 3.8"] ;
282 -> 283 ;
284 [label="Health <= 59.7\nmse = 0.0\nsamples = 6\nvalue = 4.3"] ;
282 -> 284 ;
285 [label="Support <= 0.7\nmse = 0.0\nsamples = 5\nvalue = 4.3"] ;
284 -> 285 ;
286 [label="GDP <= 7.7\nmse = 0.0\nsamples = 3\nvalue = 4.3"] ;
285 -> 286 ;
287 [label="Health <= 58.5\nmse = 0.0\nsamples = 2\nvalue = 4.3"] ;
286 -> 287 ;
288 [label="mse = 0.0\nsamples = 1\nvalue = 4.3"] ;
287 -> 288 ;
289 [label="mse = 0.0\nsamples = 1\nvalue = 4.3"] ;
287 -> 289 ;
290 [label="mse = -0.0\nsamples = 1\nvalue = 4.4"] ;
286 -> 290 ;
291 [label="Generosity <= 0.0\nmse = 0.0\nsamples = 2\nvalue = 4.2"] ;
285 -> 291 ;
292 [label="mse = 0.0\nsamples = 1\nvalue = 4.2"] ;
291 -> 292 ;
293 [label="mse = -0.0\nsamples = 1\nvalue = 4.2"] ;
291 -> 293 ;
294 [label="mse = 0.0\nsamples = 1\nvalue = 4.6"] ;
284 -> 294 ;
295 [label="Corruption <= 0.9\nmse = 0.0\nsamples = 3\nvalue = 4.5"] ;
281 -> 295 ;
296 [label="Health <= 57.4\nmse = 0.0\nsamples = 2\nvalue = 4.5"] ;
295 -> 296 ;
297 [label="mse = 0.0\nsamples = 1\nvalue = 4.5"] ;
296 -> 297 ;
298 [label="mse = -0.0\nsamples = 1\nvalue = 4.4"] ;
296 -> 298 ;
299 [label="mse = 0.0\nsamples = 1\nvalue = 4.9"] ;
295 -> 299 ;
300 [label="Freedom <= 0.8\nmse = 0.0\nsamples = 4\nvalue = 4.7"] ;
280 -> 300 ;
301 [label="Support <= 0.8\nmse = 0.0\nsamples = 2\nvalue = 4.9"] ;
300 -> 301 ;
302 [label="mse = 0.0\nsamples = 1\nvalue = 4.8"] ;
301 -> 302 ;
303 [label="mse = 0.0\nsamples = 1\nvalue = 4.9"] ;
301 -> 303 ;
304 [label="GDP <= 8.0\nmse = 0.0\nsamples = 2\nvalue = 4.6"] ;
300 -> 304 ;
305 [label="mse = 0.0\nsamples = 1\nvalue = 4.5"] ;
304 -> 305 ;
306 [label="mse = 0.0\nsamples = 1\nvalue = 4.7"] ;
304 -> 306 ;
307 [label="Corruption <= 0.9\nmse = 0.0\nsamples = 4\nvalue = 3.8"] ;
137 -> 307 ;
308 [label="Support <= 0.7\nmse = 0.0\nsamples = 2\nvalue = 3.6"] ;
307 -> 308 ;
309 [label="mse = 0.0\nsamples = 1\nvalue = 3.7"] ;
308 -> 309 ;
310 [label="mse = -0.0\nsamples = 1\nvalue = 3.5"] ;
308 -> 310 ;
311 [label="GDP <= 7.9\nmse = 0.0\nsamples = 2\nvalue = 4.0"] ;
307 -> 311 ;
312 [label="mse = 0.0\nsamples = 1\nvalue = 4.1"] ;
311 -> 312 ;
313 [label="mse = 0.0\nsamples = 1\nvalue = 3.9"] ;
311 -> 313 ;
314 [label="Health <= 52.9\nmse = 0.3\nsamples = 121\nvalue = 4.6"] ;
2 -> 314 ;
315 [label="Corruption <= 0.8\nmse = 0.1\nsamples = 22\nvalue = 5.0"] ;
314 -> 315 ;
316 [label="Health <= 47.3\nmse = 0.0\nsamples = 2\nvalue = 4.5"] ;
315 -> 316 ;
317 [label="mse = 0.0\nsamples = 1\nvalue = 4.7"] ;
316 -> 317 ;
318 [label="mse = 0.0\nsamples = 1\nvalue = 4.4"] ;
316 -> 318 ;
319 [label="Corruption <= 0.8\nmse = 0.1\nsamples = 20\nvalue = 5.1"] ;
315 -> 319 ;
320 [label="Support <= 0.7\nmse = 0.0\nsamples = 2\nvalue = 5.3"] ;
319 -> 320 ;
321 [label="mse = 0.0\nsamples = 1\nvalue = 5.0"] ;
320 -> 321 ;
322 [label="mse = 0.0\nsamples = 1\nvalue = 5.4"] ;
320 -> 322 ;
323 [label="Support <= 0.8\nmse = 0.1\nsamples = 18\nvalue = 5.0"] ;
319 -> 323 ;
324 [label="Corruption <= 0.9\nmse = 0.1\nsamples = 9\nvalue = 4.9"] ;
323 -> 324 ;
325 [label="mse = 0.0\nsamples = 1\nvalue = 4.2"] ;
324 -> 325 ;
326 [label="Freedom <= 0.8\nmse = 0.0\nsamples = 8\nvalue = 5.0"] ;
324 -> 326 ;
327 [label="Corruption <= 0.9\nmse = 0.0\nsamples = 5\nvalue = 4.9"] ;
326 -> 327 ;
328 [label="Health <= 47.6\nmse = 0.0\nsamples = 2\nvalue = 4.8"] ;
327 -> 328 ;
329 [label="mse = 0.0\nsamples = 1\nvalue = 4.7"] ;
328 -> 329 ;
330 [label="mse = 0.0\nsamples = 1\nvalue = 4.8"] ;
328 -> 330 ;
331 [label="Corruption <= 0.9\nmse = 0.0\nsamples = 3\nvalue = 4.9"] ;
327 -> 331 ;
332 [label="GDP <= 8.5\nmse = 0.0\nsamples = 2\nvalue = 5.0"] ;
331 -> 332 ;
333 [label="mse = 0.0\nsamples = 1\nvalue = 4.9"] ;
332 -> 333 ;
334 [label="mse = -0.0\nsamples = 1\nvalue = 5.0"] ;
332 -> 334 ;
335 [label="mse = 0.0\nsamples = 1\nvalue = 4.9"] ;
331 -> 335 ;
336 [label="Generosity <= 0.0\nmse = 0.0\nsamples = 3\nvalue = 5.1"] ;
326 -> 336 ;
337 [label="Corruption <= 0.9\nmse = 0.0\nsamples = 2\nvalue = 5.3"] ;
336 -> 337 ;
338 [label="mse = 0.0\nsamples = 1\nvalue = 5.3"] ;
337 -> 338 ;
339 [label="mse = 0.0\nsamples = 1\nvalue = 5.3"] ;
337 -> 339 ;
340 [label="mse = 0.0\nsamples = 1\nvalue = 5.0"] ;
336 -> 340 ;
341 [label="Health <= 47.8\nmse = 0.0\nsamples = 9\nvalue = 5.1"] ;
323 -> 341 ;
342 [label="mse = 0.0\nsamples = 1\nvalue = 5.5"] ;
341 -> 342 ;
343 [label="Support <= 0.8\nmse = 0.0\nsamples = 8\nvalue = 5.1"] ;
341 -> 343 ;
344 [label="Support <= 0.8\nmse = 0.0\nsamples = 3\nvalue = 5.2"] ;
343 -> 344 ;
345 [label="mse = 0.0\nsamples = 1\nvalue = 5.3"] ;
344 -> 345 ;
346 [label="Freedom <= 0.7\nmse = 0.0\nsamples = 2\nvalue = 5.2"] ;
344 -> 346 ;
347 [label="mse = 0.0\nsamples = 1\nvalue = 5.2"] ;
346 -> 347 ;
348 [label="mse = -0.0\nsamples = 1\nvalue = 5.2"] ;
346 -> 348 ;
349 [label="Support <= 0.9\nmse = 0.0\nsamples = 5\nvalue = 5.0"] ;
343 -> 349 ;
350 [label="Support <= 0.9\nmse = 0.0\nsamples = 4\nvalue = 4.9"] ;
349 -> 350 ;
351 [label="Health <= 49.1\nmse = 0.0\nsamples = 3\nvalue = 4.9"] ;
350 -> 351 ;
352 [label="mse = 0.0\nsamples = 1\nvalue = 4.9"] ;
351 -> 352 ;
353 [label="Freedom <= 0.8\nmse = 0.0\nsamples = 2\nvalue = 4.9"] ;
351 -> 353 ;
354 [label="mse = 0.0\nsamples = 1\nvalue = 4.9"] ;
353 -> 354 ;
355 [label="mse = 0.0\nsamples = 1\nvalue = 4.9"] ;
353 -> 355 ;
356 [label="mse = 0.0\nsamples = 1\nvalue = 5.0"] ;
350 -> 356 ;
357 [label="mse = -0.0\nsamples = 1\nvalue = 5.1"] ;
349 -> 357 ;
358 [label="Health <= 57.6\nmse = 0.3\nsamples = 99\nvalue = 4.6"] ;
314 -> 358 ;
359 [label="GDP <= 9.5\nmse = 0.3\nsamples = 51\nvalue = 4.4"] ;
358 -> 359 ;
360 [label="Corruption <= 0.8\nmse = 0.2\nsamples = 44\nvalue = 4.5"] ;
359 -> 360 ;
361 [label="Freedom <= 0.9\nmse = 0.2\nsamples = 31\nvalue = 4.3"] ;
360 -> 361 ;
362 [label="Support <= 0.7\nmse = 0.2\nsamples = 29\nvalue = 4.3"] ;
361 -> 362 ;
363 [label="Health <= 56.8\nmse = 0.1\nsamples = 14\nvalue = 4.1"] ;
362 -> 363 ;
364 [label="Generosity <= 0.0\nmse = 0.1\nsamples = 11\nvalue = 4.0"] ;
363 -> 364 ;
365 [label="Generosity <= -0.1\nmse = 0.0\nsamples = 8\nvalue = 4.2"] ;
364 -> 365 ;
366 [label="GDP <= 8.4\nmse = 0.0\nsamples = 2\nvalue = 4.0"] ;
365 -> 366 ;
367 [label="mse = 0.0\nsamples = 1\nvalue = 4.1"] ;
366 -> 367 ;
368 [label="mse = 0.0\nsamples = 1\nvalue = 3.9"] ;
366 -> 368 ;
369 [label="Generosity <= -0.1\nmse = 0.0\nsamples = 6\nvalue = 4.2"] ;
365 -> 369 ;
370 [label="mse = 0.0\nsamples = 1\nvalue = 4.5"] ;
369 -> 370 ;
371 [label="Corruption <= 0.8\nmse = 0.0\nsamples = 5\nvalue = 4.2"] ;
369 -> 371 ;
372 [label="Support <= 0.7\nmse = 0.0\nsamples = 3\nvalue = 4.2"] ;
371 -> 372 ;
373 [label="Generosity <= -0.1\nmse = 0.0\nsamples = 2\nvalue = 4.1"] ;
372 -> 373 ;
374 [label="mse = 0.0\nsamples = 1\nvalue = 4.1"] ;
373 -> 374 ;
375 [label="mse = -0.0\nsamples = 1\nvalue = 4.1"] ;
373 -> 375 ;
376 [label="mse = -0.0\nsamples = 1\nvalue = 4.2"] ;
372 -> 376 ;
377 [label="Generosity <= -0.0\nmse = 0.0\nsamples = 2\nvalue = 4.3"] ;
371 -> 377 ;
378 [label="mse = 0.0\nsamples = 1\nvalue = 4.3"] ;
377 -> 378 ;
379 [label="mse = 0.0\nsamples = 1\nvalue = 4.2"] ;
377 -> 379 ;
380 [label="Support <= 0.7\nmse = 0.1\nsamples = 3\nvalue = 3.7"] ;
364 -> 380 ;
381 [label="Corruption <= 0.8\nmse = 0.0\nsamples = 2\nvalue = 3.4"] ;
380 -> 381 ;
382 [label="mse = 0.0\nsamples = 1\nvalue = 3.5"] ;
381 -> 382 ;
383 [label="mse = -0.0\nsamples = 1\nvalue = 3.3"] ;
381 -> 383 ;
384 [label="mse = 0.0\nsamples = 1\nvalue = 3.9"] ;
380 -> 384 ;
385 [label="Generosity <= 0.4\nmse = 0.1\nsamples = 3\nvalue = 4.8"] ;
363 -> 385 ;
386 [label="Support <= 0.6\nmse = 0.0\nsamples = 2\nvalue = 5.0"] ;
385 -> 386 ;
387 [label="mse = 0.0\nsamples = 1\nvalue = 5.1"] ;
386 -> 387 ;
388 [label="mse = -0.0\nsamples = 1\nvalue = 4.9"] ;
386 -> 388 ;
389 [label="mse = 0.0\nsamples = 1\nvalue = 4.4"] ;
385 -> 389 ;
390 [label="Generosity <= 0.1\nmse = 0.1\nsamples = 15\nvalue = 4.5"] ;
362 -> 390 ;
391 [label="Health <= 53.5\nmse = 0.1\nsamples = 13\nvalue = 4.5"] ;
390 -> 391 ;
392 [label="mse = 0.0\nsamples = 1\nvalue = 3.7"] ;
391 -> 392 ;
393 [label="GDP <= 9.3\nmse = 0.1\nsamples = 12\nvalue = 4.6"] ;
391 -> 393 ;
394 [label="Support <= 0.8\nmse = 0.0\nsamples = 9\nvalue = 4.5"] ;
393 -> 394 ;
395 [label="Health <= 55.0\nmse = 0.0\nsamples = 4\nvalue = 4.7"] ;
394 -> 395 ;
396 [label="Health <= 54.4\nmse = 0.0\nsamples = 2\nvalue = 4.8"] ;
395 -> 396 ;
397 [label="mse = 0.0\nsamples = 1\nvalue = 4.8"] ;
396 -> 397 ;
398 [label="mse = -0.0\nsamples = 1\nvalue = 4.8"] ;
396 -> 398 ;
399 [label="Support <= 0.8\nmse = 0.0\nsamples = 2\nvalue = 4.6"] ;
395 -> 399 ;
400 [label="mse = 0.0\nsamples = 1\nvalue = 4.6"] ;
399 -> 400 ;
401 [label="mse = -0.0\nsamples = 1\nvalue = 4.7"] ;
399 -> 401 ;
402 [label="Support <= 0.8\nmse = 0.0\nsamples = 5\nvalue = 4.4"] ;
394 -> 402 ;
403 [label="Freedom <= 0.5\nmse = 0.0\nsamples = 2\nvalue = 4.1"] ;
402 -> 403 ;
404 [label="mse = 0.0\nsamples = 1\nvalue = 4.1"] ;
403 -> 404 ;
405 [label="mse = 0.0\nsamples = 1\nvalue = 4.2"] ;
403 -> 405 ;
406 [label="Freedom <= 0.6\nmse = 0.0\nsamples = 3\nvalue = 4.5"] ;
402 -> 406 ;
407 [label="mse = 0.0\nsamples = 1\nvalue = 4.5"] ;
406 -> 407 ;
408 [label="Generosity <= -0.1\nmse = 0.0\nsamples = 2\nvalue = 4.4"] ;
406 -> 408 ;
409 [label="mse = 0.0\nsamples = 1\nvalue = 4.4"] ;
408 -> 409 ;
410 [label="mse = 0.0\nsamples = 1\nvalue = 4.5"] ;
408 -> 410 ;
411 [label="Support <= 0.9\nmse = 0.0\nsamples = 3\nvalue = 4.9"] ;
393 -> 411 ;
412 [label="mse = 0.0\nsamples = 1\nvalue = 5.0"] ;
411 -> 412 ;
413 [label="Health <= 55.0\nmse = 0.0\nsamples = 2\nvalue = 4.8"] ;
411 -> 413 ;
414 [label="mse = 0.0\nsamples = 1\nvalue = 4.8"] ;
413 -> 414 ;
415 [label="mse = -0.0\nsamples = 1\nvalue = 4.8"] ;
413 -> 415 ;
416 [label="Freedom <= 0.6\nmse = 0.0\nsamples = 2\nvalue = 4.0"] ;
390 -> 416 ;
417 [label="mse = 0.0\nsamples = 1\nvalue = 3.9"] ;
416 -> 417 ;
418 [label="mse = 0.0\nsamples = 1\nvalue = 4.2"] ;
416 -> 418 ;
419 [label="GDP <= 8.2\nmse = 0.1\nsamples = 2\nvalue = 5.3"] ;
361 -> 419 ;
420 [label="mse = 0.0\nsamples = 1\nvalue = 5.6"] ;
419 -> 420 ;
421 [label="mse = 0.0\nsamples = 1\nvalue = 5.0"] ;
419 -> 421 ;
422 [label="Corruption <= 0.9\nmse = 0.2\nsamples = 13\nvalue = 4.8"] ;
360 -> 422 ;
423 [label="Generosity <= 0.2\nmse = 0.1\nsamples = 12\nvalue = 4.9"] ;
422 -> 423 ;
424 [label="Health <= 56.4\nmse = 0.1\nsamples = 11\nvalue = 4.9"] ;
423 -> 424 ;
425 [label="Generosity <= 0.1\nmse = 0.0\nsamples = 8\nvalue = 4.8"] ;
424 -> 425 ;
426 [label="Generosity <= -0.1\nmse = 0.0\nsamples = 6\nvalue = 4.9"] ;
425 -> 426 ;
427 [label="mse = 0.0\nsamples = 1\nvalue = 4.5"] ;
426 -> 427 ;
428 [label="Support <= 0.7\nmse = 0.0\nsamples = 5\nvalue = 4.9"] ;
426 -> 428 ;
429 [label="Freedom <= 0.8\nmse = 0.0\nsamples = 3\nvalue = 5.0"] ;
428 -> 429 ;
430 [label="Generosity <= -0.0\nmse = 0.0\nsamples = 2\nvalue = 5.0"] ;
429 -> 430 ;
431 [label="mse = 0.0\nsamples = 1\nvalue = 5.0"] ;
430 -> 431 ;
432 [label="mse = -0.0\nsamples = 1\nvalue = 5.1"] ;
430 -> 432 ;
433 [label="mse = -0.0\nsamples = 1\nvalue = 5.0"] ;
429 -> 433 ;
434 [label="Generosity <= -0.1\nmse = 0.0\nsamples = 2\nvalue = 4.9"] ;
428 -> 434 ;
435 [label="mse = 0.0\nsamples = 1\nvalue = 4.9"] ;
434 -> 435 ;
436 [label="mse = 0.0\nsamples = 1\nvalue = 4.8"] ;
434 -> 436 ;
437 [label="Corruption <= 0.9\nmse = 0.0\nsamples = 2\nvalue = 4.5"] ;
425 -> 437 ;
438 [label="mse = 0.0\nsamples = 1\nvalue = 4.4"] ;
437 -> 438 ;
439 [label="mse = 0.0\nsamples = 1\nvalue = 4.5"] ;
437 -> 439 ;
440 [label="Support <= 0.7\nmse = 0.0\nsamples = 3\nvalue = 5.1"] ;
424 -> 440 ;
441 [label="Freedom <= 0.4\nmse = 0.0\nsamples = 2\nvalue = 5.2"] ;
440 -> 441 ;
442 [label="mse = 0.0\nsamples = 1\nvalue = 5.1"] ;
441 -> 442 ;
443 [label="mse = 0.0\nsamples = 1\nvalue = 5.3"] ;
441 -> 443 ;
444 [label="mse = 0.0\nsamples = 1\nvalue = 4.8"] ;
440 -> 444 ;
445 [label="mse = 0.0\nsamples = 1\nvalue = 5.8"] ;
423 -> 445 ;
446 [label="mse = 0.0\nsamples = 1\nvalue = 4.0"] ;
422 -> 446 ;
447 [label="Health <= 56.5\nmse = 0.0\nsamples = 7\nvalue = 3.9"] ;
359 -> 447 ;
448 [label="Generosity <= -0.2\nmse = 0.0\nsamples = 3\nvalue = 4.1"] ;
447 -> 448 ;
449 [label="mse = 0.0\nsamples = 1\nvalue = 4.3"] ;
448 -> 449 ;
450 [label="GDP <= 9.7\nmse = 0.0\nsamples = 2\nvalue = 4.0"] ;
448 -> 450 ;
451 [label="mse = 0.0\nsamples = 1\nvalue = 4.0"] ;
450 -> 451 ;
452 [label="mse = 0.0\nsamples = 1\nvalue = 4.0"] ;
450 -> 452 ;
453 [label="Corruption <= 0.8\nmse = 0.0\nsamples = 4\nvalue = 3.8"] ;
447 -> 453 ;
454 [label="mse = 0.0\nsamples = 1\nvalue = 3.5"] ;
453 -> 454 ;
455 [label="GDP <= 9.7\nmse = 0.0\nsamples = 3\nvalue = 3.8"] ;
453 -> 455 ;
456 [label="Support <= 0.8\nmse = 0.0\nsamples = 2\nvalue = 3.8"] ;
455 -> 456 ;
457 [label="mse = 0.0\nsamples = 1\nvalue = 3.8"] ;
456 -> 457 ;
458 [label="mse = 0.0\nsamples = 1\nvalue = 3.8"] ;
456 -> 458 ;
459 [label="mse = -0.0\nsamples = 1\nvalue = 3.9"] ;
455 -> 459 ;
460 [label="GDP <= 8.6\nmse = 0.4\nsamples = 48\nvalue = 4.7"] ;
358 -> 460 ;
461 [label="Corruption <= 0.8\nmse = 0.3\nsamples = 12\nvalue = 5.2"] ;
460 -> 461 ;
462 [label="Generosity <= -0.1\nmse = 0.1\nsamples = 7\nvalue = 5.5"] ;
461 -> 462 ;
463 [label="Generosity <= -0.1\nmse = 0.0\nsamples = 3\nvalue = 5.3"] ;
462 -> 463 ;
464 [label="mse = 0.0\nsamples = 1\nvalue = 5.5"] ;
463 -> 464 ;
465 [label="GDP <= 8.5\nmse = 0.0\nsamples = 2\nvalue = 5.2"] ;
463 -> 465 ;
466 [label="mse = 0.0\nsamples = 1\nvalue = 5.3"] ;
465 -> 466 ;
467 [label="mse = 0.0\nsamples = 1\nvalue = 5.2"] ;
465 -> 467 ;
468 [label="Corruption <= 0.8\nmse = 0.0\nsamples = 4\nvalue = 5.8"] ;
462 -> 468 ;
469 [label="Corruption <= 0.7\nmse = 0.0\nsamples = 2\nvalue = 6.0"] ;
468 -> 469 ;
470 [label="mse = 0.0\nsamples = 1\nvalue = 5.8"] ;
469 -> 470 ;
471 [label="mse = 0.0\nsamples = 1\nvalue = 6.1"] ;
469 -> 471 ;
472 [label="GDP <= 8.5\nmse = 0.0\nsamples = 2\nvalue = 5.6"] ;
468 -> 472 ;
473 [label="mse = 0.0\nsamples = 1\nvalue = 5.5"] ;
472 -> 473 ;
474 [label="mse = 0.0\nsamples = 1\nvalue = 5.6"] ;
472 -> 474 ;
475 [label="GDP <= 8.2\nmse = 0.2\nsamples = 5\nvalue = 4.7"] ;
461 -> 475 ;
476 [label="mse = 0.0\nsamples = 1\nvalue = 3.9"] ;
475 -> 476 ;
477 [label="Support <= 0.6\nmse = 0.0\nsamples = 4\nvalue = 4.8"] ;
475 -> 477 ;
478 [label="GDP <= 8.5\nmse = 0.0\nsamples = 2\nvalue = 4.7"] ;
477 -> 478 ;
479 [label="mse = 0.0\nsamples = 1\nvalue = 4.6"] ;
478 -> 479 ;
480 [label="mse = 0.0\nsamples = 1\nvalue = 4.7"] ;
478 -> 480 ;
481 [label="Health <= 58.8\nmse = 0.0\nsamples = 2\nvalue = 5.0"] ;
477 -> 481 ;
482 [label="mse = 0.0\nsamples = 1\nvalue = 5.0"] ;
481 -> 482 ;
483 [label="mse = 0.0\nsamples = 1\nvalue = 5.1"] ;
481 -> 483 ;
484 [label="Health <= 60.4\nmse = 0.3\nsamples = 36\nvalue = 4.6"] ;
460 -> 484 ;
485 [label="Health <= 59.6\nmse = 0.2\nsamples = 34\nvalue = 4.7"] ;
484 -> 485 ;
486 [label="Freedom <= 0.8\nmse = 0.2\nsamples = 19\nvalue = 4.4"] ;
485 -> 486 ;
487 [label="Generosity <= -0.2\nmse = 0.0\nsamples = 10\nvalue = 4.7"] ;
486 -> 487 ;
488 [label="Corruption <= 0.9\nmse = 0.0\nsamples = 3\nvalue = 4.9"] ;
487 -> 488 ;
489 [label="GDP <= 9.7\nmse = 0.0\nsamples = 2\nvalue = 4.8"] ;
488 -> 489 ;
490 [label="mse = 0.0\nsamples = 1\nvalue = 4.8"] ;
489 -> 490 ;
491 [label="mse = -0.0\nsamples = 1\nvalue = 4.8"] ;
489 -> 491 ;
492 [label="mse = 0.0\nsamples = 1\nvalue = 5.0"] ;
488 -> 492 ;
493 [label="Support <= 0.7\nmse = 0.0\nsamples = 7\nvalue = 4.6"] ;
487 -> 493 ;
494 [label="mse = 0.0\nsamples = 1\nvalue = 4.3"] ;
493 -> 494 ;
495 [label="Generosity <= -0.0\nmse = 0.0\nsamples = 6\nvalue = 4.6"] ;
493 -> 495 ;
496 [label="GDP <= 9.6\nmse = 0.0\nsamples = 3\nvalue = 4.7"] ;
495 -> 496 ;
497 [label="mse = 0.0\nsamples = 1\nvalue = 4.7"] ;
496 -> 497 ;
498 [label="Health <= 58.7\nmse = 0.0\nsamples = 2\nvalue = 4.7"] ;
496 -> 498 ;
499 [label="mse = 0.0\nsamples = 1\nvalue = 4.7"] ;
498 -> 499 ;
500 [label="mse = 0.0\nsamples = 1\nvalue = 4.7"] ;
498 -> 500 ;
501 [label="GDP <= 8.9\nmse = 0.0\nsamples = 3\nvalue = 4.5"] ;
495 -> 501 ;
502 [label="mse = 0.0\nsamples = 1\nvalue = 4.6"] ;
501 -> 502 ;
503 [label="Health <= 59.0\nmse = 0.0\nsamples = 2\nvalue = 4.5"] ;
501 -> 503 ;
504 [label="mse = 0.0\nsamples = 1\nvalue = 4.5"] ;
503 -> 504 ;
505 [label="mse = 0.0\nsamples = 1\nvalue = 4.5"] ;
503 -> 505 ;
506 [label="Generosity <= -0.1\nmse = 0.3\nsamples = 9\nvalue = 4.1"] ;
486 -> 506 ;
507 [label="Support <= 0.8\nmse = 0.0\nsamples = 2\nvalue = 3.5"] ;
506 -> 507 ;
508 [label="mse = 0.0\nsamples = 1\nvalue = 3.5"] ;
507 -> 508 ;
509 [label="mse = -0.0\nsamples = 1\nvalue = 3.5"] ;
507 -> 509 ;
510 [label="GDP <= 8.7\nmse = 0.1\nsamples = 7\nvalue = 4.5"] ;
506 -> 510 ;
511 [label="Health <= 58.6\nmse = 0.0\nsamples = 5\nvalue = 4.4"] ;
510 -> 511 ;
512 [label="mse = 0.0\nsamples = 1\nvalue = 4.6"] ;
511 -> 512 ;
513 [label="Freedom <= 0.9\nmse = 0.0\nsamples = 4\nvalue = 4.3"] ;
511 -> 513 ;
514 [label="Corruption <= 0.7\nmse = 0.0\nsamples = 2\nvalue = 4.2"] ;
513 -> 514 ;
515 [label="mse = 0.0\nsamples = 1\nvalue = 4.2"] ;
514 -> 515 ;
516 [label="mse = -0.0\nsamples = 1\nvalue = 4.2"] ;
514 -> 516 ;
517 [label="Corruption <= 0.7\nmse = 0.0\nsamples = 2\nvalue = 4.4"] ;
513 -> 517 ;
518 [label="mse = 0.0\nsamples = 1\nvalue = 4.4"] ;
517 -> 518 ;
519 [label="mse = -0.0\nsamples = 1\nvalue = 4.4"] ;
517 -> 519 ;
520 [label="Generosity <= 0.1\nmse = 0.0\nsamples = 2\nvalue = 4.7"] ;
510 -> 520 ;
521 [label="mse = 0.0\nsamples = 1\nvalue = 4.6"] ;
520 -> 521 ;
522 [label="mse = 0.0\nsamples = 1\nvalue = 4.9"] ;
520 -> 522 ;
523 [label="Freedom <= 0.6\nmse = 0.1\nsamples = 15\nvalue = 4.9"] ;
485 -> 523 ;
524 [label="Health <= 60.1\nmse = 0.1\nsamples = 3\nvalue = 4.4"] ;
523 -> 524 ;
525 [label="mse = 0.0\nsamples = 1\nvalue = 4.7"] ;
524 -> 525 ;
526 [label="Support <= 0.7\nmse = 0.0\nsamples = 2\nvalue = 4.2"] ;
524 -> 526 ;
527 [label="mse = 0.0\nsamples = 1\nvalue = 4.2"] ;
526 -> 527 ;
528 [label="mse = 0.0\nsamples = 1\nvalue = 4.2"] ;
526 -> 528 ;
529 [label="GDP <= 9.0\nmse = 0.1\nsamples = 12\nvalue = 5.0"] ;
523 -> 529 ;
530 [label="Freedom <= 0.8\nmse = 0.0\nsamples = 5\nvalue = 4.8"] ;
529 -> 530 ;
531 [label="Health <= 60.0\nmse = 0.0\nsamples = 4\nvalue = 4.9"] ;
530 -> 531 ;
532 [label="GDP <= 8.9\nmse = 0.0\nsamples = 2\nvalue = 4.9"] ;
531 -> 532 ;
533 [label="mse = 0.0\nsamples = 1\nvalue = 4.9"] ;
532 -> 533 ;
534 [label="mse = -0.0\nsamples = 1\nvalue = 4.9"] ;
532 -> 534 ;
535 [label="GDP <= 9.0\nmse = 0.0\nsamples = 2\nvalue = 4.8"] ;
531 -> 535 ;
536 [label="mse = 0.0\nsamples = 1\nvalue = 4.8"] ;
535 -> 536 ;
537 [label="mse = 0.0\nsamples = 1\nvalue = 4.8"] ;
535 -> 537 ;
538 [label="mse = 0.0\nsamples = 1\nvalue = 4.6"] ;
530 -> 538 ;
539 [label="Generosity <= -0.2\nmse = 0.0\nsamples = 7\nvalue = 5.2"] ;
529 -> 539 ;
540 [label="Health <= 60.3\nmse = 0.0\nsamples = 3\nvalue = 5.4"] ;
539 -> 540 ;
541 [label="Health <= 60.0\nmse = 0.0\nsamples = 2\nvalue = 5.4"] ;
540 -> 541 ;
542 [label="mse = 0.0\nsamples = 1\nvalue = 5.4"] ;
541 -> 542 ;
543 [label="mse = 0.0\nsamples = 1\nvalue = 5.5"] ;
541 -> 543 ;
544 [label="mse = 0.0\nsamples = 1\nvalue = 5.2"] ;
540 -> 544 ;
545 [label="GDP <= 9.0\nmse = 0.0\nsamples = 4\nvalue = 5.1"] ;
539 -> 545 ;
546 [label="mse = 0.0\nsamples = 1\nvalue = 5.5"] ;
545 -> 546 ;
547 [label="Corruption <= 0.8\nmse = 0.0\nsamples = 3\nvalue = 5.0"] ;
545 -> 547 ;
548 [label="Support <= 0.8\nmse = 0.0\nsamples = 2\nvalue = 5.1"] ;
547 -> 548 ;
549 [label="mse = 0.0\nsamples = 1\nvalue = 5.1"] ;
548 -> 549 ;
550 [label="mse = 0.0\nsamples = 1\nvalue = 5.1"] ;
548 -> 550 ;
551 [label="mse = 0.0\nsamples = 1\nvalue = 4.8"] ;
547 -> 551 ;
552 [label="Freedom <= 0.7\nmse = 0.0\nsamples = 2\nvalue = 3.4"] ;
484 -> 552 ;
553 [label="mse = 0.0\nsamples = 1\nvalue = 3.6"] ;
552 -> 553 ;
554 [label="mse = 0.0\nsamples = 1\nvalue = 3.2"] ;
552 -> 554 ;
555 [label="Support <= 0.7\nmse = 0.5\nsamples = 304\nvalue = 5.4"] ;
1 -> 555 ;
556 [label="Generosity <= -0.2\nmse = 0.2\nsamples = 46\nvalue = 4.8"] ;
555 -> 556 ;
557 [label="Support <= 0.5\nmse = 0.1\nsamples = 3\nvalue = 3.8"] ;
556 -> 557 ;
558 [label="mse = 0.0\nsamples = 1\nvalue = 4.3"] ;
557 -> 558 ;
559 [label="Support <= 0.6\nmse = 0.0\nsamples = 2\nvalue = 3.7"] ;
557 -> 559 ;
560 [label="mse = 0.0\nsamples = 1\nvalue = 3.7"] ;
559 -> 560 ;
561 [label="mse = 0.0\nsamples = 1\nvalue = 3.7"] ;
559 -> 561 ;
562 [label="Corruption <= 0.6\nmse = 0.1\nsamples = 43\nvalue = 4.8"] ;
556 -> 562 ;
563 [label="Generosity <= 0.0\nmse = 0.1\nsamples = 4\nvalue = 4.2"] ;
562 -> 563 ;
564 [label="Freedom <= 0.6\nmse = 0.0\nsamples = 3\nvalue = 4.3"] ;
563 -> 564 ;
565 [label="mse = 0.0\nsamples = 1\nvalue = 4.4"] ;
564 -> 565 ;
566 [label="Generosity <= -0.1\nmse = 0.0\nsamples = 2\nvalue = 4.3"] ;
564 -> 566 ;
567 [label="mse = 0.0\nsamples = 1\nvalue = 4.2"] ;
566 -> 567 ;
568 [label="mse = -0.0\nsamples = 1\nvalue = 4.3"] ;
566 -> 568 ;
569 [label="mse = -0.0\nsamples = 1\nvalue = 3.6"] ;
563 -> 569 ;
570 [label="Support <= 0.7\nmse = 0.1\nsamples = 39\nvalue = 4.9"] ;
562 -> 570 ;
571 [label="Support <= 0.6\nmse = 0.1\nsamples = 17\nvalue = 5.0"] ;
570 -> 571 ;
572 [label="Corruption <= 0.7\nmse = 0.0\nsamples = 10\nvalue = 4.8"] ;
571 -> 572 ;
573 [label="Corruption <= 0.7\nmse = 0.0\nsamples = 4\nvalue = 4.7"] ;
572 -> 573 ;
574 [label="mse = 0.0\nsamples = 1\nvalue = 4.7"] ;
573 -> 574 ;
575 [label="Support <= 0.6\nmse = 0.0\nsamples = 3\nvalue = 4.6"] ;
573 -> 575 ;
576 [label="GDP <= 8.9\nmse = 0.0\nsamples = 2\nvalue = 4.7"] ;
575 -> 576 ;
577 [label="mse = 0.0\nsamples = 1\nvalue = 4.7"] ;
576 -> 577 ;
578 [label="mse = 0.0\nsamples = 1\nvalue = 4.7"] ;
576 -> 578 ;
579 [label="mse = -0.0\nsamples = 1\nvalue = 4.6"] ;
575 -> 579 ;
580 [label="Corruption <= 0.9\nmse = 0.0\nsamples = 6\nvalue = 4.9"] ;
572 -> 580 ;
581 [label="Health <= 62.1\nmse = 0.0\nsamples = 5\nvalue = 5.0"] ;
580 -> 581 ;
582 [label="Health <= 60.9\nmse = 0.0\nsamples = 3\nvalue = 4.9"] ;
581 -> 582 ;
583 [label="Freedom <= 0.6\nmse = 0.0\nsamples = 2\nvalue = 4.9"] ;
582 -> 583 ;
584 [label="mse = 0.0\nsamples = 1\nvalue = 4.9"] ;
583 -> 584 ;
585 [label="mse = 0.0\nsamples = 1\nvalue = 4.9"] ;
583 -> 585 ;
586 [label="mse = -0.0\nsamples = 1\nvalue = 5.0"] ;
582 -> 586 ;
587 [label="GDP <= 9.3\nmse = 0.0\nsamples = 2\nvalue = 5.2"] ;
581 -> 587 ;
588 [label="mse = 0.0\nsamples = 1\nvalue = 5.2"] ;
587 -> 588 ;
589 [label="mse = 0.0\nsamples = 1\nvalue = 5.1"] ;
587 -> 589 ;
590 [label="mse = 0.0\nsamples = 1\nvalue = 4.6"] ;
580 -> 590 ;
591 [label="GDP <= 8.2\nmse = 0.0\nsamples = 7\nvalue = 5.2"] ;
571 -> 591 ;
592 [label="mse = 0.0\nsamples = 1\nvalue = 5.8"] ;
591 -> 592 ;
593 [label="Generosity <= -0.2\nmse = 0.0\nsamples = 6\nvalue = 5.2"] ;
591 -> 593 ;
594 [label="Freedom <= 0.7\nmse = 0.0\nsamples = 2\nvalue = 5.3"] ;
593 -> 594 ;
595 [label="mse = -0.0\nsamples = 1\nvalue = 5.2"] ;
594 -> 595 ;
596 [label="mse = -0.0\nsamples = 1\nvalue = 5.4"] ;
594 -> 596 ;
597 [label="Support <= 0.7\nmse = 0.0\nsamples = 4\nvalue = 5.1"] ;
593 -> 597 ;
598 [label="Generosity <= 0.1\nmse = 0.0\nsamples = 3\nvalue = 5.1"] ;
597 -> 598 ;
599 [label="Freedom <= 0.7\nmse = 0.0\nsamples = 2\nvalue = 5.1"] ;
598 -> 599 ;
600 [label="mse = 0.0\nsamples = 1\nvalue = 5.1"] ;
599 -> 600 ;
601 [label="mse = 0.0\nsamples = 1\nvalue = 5.1"] ;
599 -> 601 ;
602 [label="mse = -0.0\nsamples = 1\nvalue = 5.1"] ;
598 -> 602 ;
603 [label="mse = -0.0\nsamples = 1\nvalue = 5.0"] ;
597 -> 603 ;
604 [label="Generosity <= 0.0\nmse = 0.1\nsamples = 22\nvalue = 4.8"] ;
570 -> 604 ;
605 [label="Support <= 0.7\nmse = 0.1\nsamples = 16\nvalue = 4.6"] ;
604 -> 605 ;
606 [label="Generosity <= -0.2\nmse = 0.0\nsamples = 3\nvalue = 4.2"] ;
605 -> 606 ;
607 [label="mse = 0.0\nsamples = 1\nvalue = 4.3"] ;
606 -> 607 ;
608 [label="Corruption <= 0.9\nmse = 0.0\nsamples = 2\nvalue = 4.2"] ;
606 -> 608 ;
609 [label="mse = 0.0\nsamples = 1\nvalue = 4.2"] ;
608 -> 609 ;
610 [label="mse = 0.0\nsamples = 1\nvalue = 4.2"] ;
608 -> 610 ;
611 [label="GDP <= 8.5\nmse = 0.1\nsamples = 13\nvalue = 4.7"] ;
605 -> 611 ;
612 [label="Generosity <= -0.1\nmse = 0.0\nsamples = 4\nvalue = 4.5"] ;
611 -> 612 ;
613 [label="mse = 0.0\nsamples = 1\nvalue = 4.6"] ;
612 -> 613 ;
614 [label="Health <= 61.9\nmse = 0.0\nsamples = 3\nvalue = 4.5"] ;
612 -> 614 ;
615 [label="mse = 0.0\nsamples = 1\nvalue = 4.4"] ;
614 -> 615 ;
616 [label="Corruption <= 0.7\nmse = 0.0\nsamples = 2\nvalue = 4.5"] ;
614 -> 616 ;
617 [label="mse = 0.0\nsamples = 1\nvalue = 4.5"] ;
616 -> 617 ;
618 [label="mse = 0.0\nsamples = 1\nvalue = 4.5"] ;
616 -> 618 ;
619 [label="Generosity <= -0.1\nmse = 0.1\nsamples = 9\nvalue = 4.8"] ;
611 -> 619 ;
620 [label="Corruption <= 0.9\nmse = 0.0\nsamples = 5\nvalue = 4.7"] ;
619 -> 620 ;
621 [label="Support <= 0.7\nmse = 0.0\nsamples = 3\nvalue = 4.8"] ;
620 -> 621 ;
622 [label="mse = 0.0\nsamples = 1\nvalue = 4.9"] ;
621 -> 622 ;
623 [label="mse = 0.0\nsamples = 2\nvalue = 4.7"] ;
621 -> 623 ;
624 [label="GDP <= 9.3\nmse = 0.0\nsamples = 2\nvalue = 4.4"] ;
620 -> 624 ;
625 [label="mse = 0.0\nsamples = 1\nvalue = 4.3"] ;
624 -> 625 ;
626 [label="mse = 0.0\nsamples = 1\nvalue = 4.5"] ;
624 -> 626 ;
627 [label="Generosity <= -0.0\nmse = 0.0\nsamples = 4\nvalue = 5.0"] ;
619 -> 627 ;
628 [label="Freedom <= 0.6\nmse = 0.0\nsamples = 3\nvalue = 5.0"] ;
627 -> 628 ;
629 [label="Health <= 66.0\nmse = 0.0\nsamples = 2\nvalue = 5.0"] ;
628 -> 629 ;
630 [label="mse = 0.0\nsamples = 1\nvalue = 4.9"] ;
629 -> 630 ;
631 [label="mse = 0.0\nsamples = 1\nvalue = 5.0"] ;
629 -> 631 ;
632 [label="mse = -0.0\nsamples = 1\nvalue = 5.3"] ;
628 -> 632 ;
633 [label="mse = 0.0\nsamples = 1\nvalue = 4.6"] ;
627 -> 633 ;
634 [label="Health <= 64.4\nmse = 0.1\nsamples = 6\nvalue = 5.1"] ;
604 -> 634 ;
635 [label="Support <= 0.7\nmse = 0.0\nsamples = 4\nvalue = 5.2"] ;
634 -> 635 ;
636 [label="Support <= 0.7\nmse = 0.0\nsamples = 2\nvalue = 5.0"] ;
635 -> 636 ;
637 [label="mse = 0.0\nsamples = 1\nvalue = 5.0"] ;
636 -> 637 ;
638 [label="mse = -0.0\nsamples = 1\nvalue = 5.1"] ;
636 -> 638 ;
639 [label="GDP <= 9.2\nmse = 0.0\nsamples = 2\nvalue = 5.3"] ;
635 -> 639 ;
640 [label="mse = 0.0\nsamples = 1\nvalue = 5.3"] ;
639 -> 640 ;
641 [label="mse = -0.0\nsamples = 1\nvalue = 5.3"] ;
639 -> 641 ;
642 [label="Generosity <= 0.1\nmse = 0.0\nsamples = 2\nvalue = 4.7"] ;
634 -> 642 ;
643 [label="mse = 0.0\nsamples = 1\nvalue = 4.6"] ;
642 -> 643 ;
644 [label="mse = 0.0\nsamples = 1\nvalue = 4.7"] ;
642 -> 644 ;
645 [label="Freedom <= 0.6\nmse = 0.5\nsamples = 258\nvalue = 5.5"] ;
555 -> 645 ;
646 [label="GDP <= 9.9\nmse = 0.3\nsamples = 54\nvalue = 5.0"] ;
645 -> 646 ;
647 [label="Support <= 0.9\nmse = 0.2\nsamples = 43\nvalue = 4.9"] ;
646 -> 647 ;
648 [label="Freedom <= 0.6\nmse = 0.2\nsamples = 37\nvalue = 5.0"] ;
647 -> 648 ;
649 [label="Support <= 0.7\nmse = 0.1\nsamples = 33\nvalue = 5.1"] ;
648 -> 649 ;
650 [label="Corruption <= 0.7\nmse = 0.1\nsamples = 5\nvalue = 4.6"] ;
649 -> 650 ;
651 [label="Corruption <= 0.7\nmse = 0.0\nsamples = 2\nvalue = 5.2"] ;
650 -> 651 ;
652 [label="mse = 0.0\nsamples = 1\nvalue = 5.1"] ;
651 -> 652 ;
653 [label="mse = 0.0\nsamples = 1\nvalue = 5.3"] ;
651 -> 653 ;
654 [label="GDP <= 9.5\nmse = 0.0\nsamples = 3\nvalue = 4.5"] ;
650 -> 654 ;
655 [label="GDP <= 9.1\nmse = 0.0\nsamples = 2\nvalue = 4.4"] ;
654 -> 655 ;
656 [label="mse = 0.0\nsamples = 1\nvalue = 4.5"] ;
655 -> 656 ;
657 [label="mse = 0.0\nsamples = 1\nvalue = 4.4"] ;
655 -> 657 ;
658 [label="mse = -0.0\nsamples = 1\nvalue = 4.6"] ;
654 -> 658 ;
659 [label="Generosity <= -0.0\nmse = 0.1\nsamples = 28\nvalue = 5.2"] ;
649 -> 659 ;
660 [label="Generosity <= -0.1\nmse = 0.1\nsamples = 18\nvalue = 5.2"] ;
659 -> 660 ;
661 [label="Generosity <= -0.2\nmse = 0.1\nsamples = 16\nvalue = 5.2"] ;
660 -> 661 ;
662 [label="GDP <= 9.8\nmse = 0.1\nsamples = 9\nvalue = 5.3"] ;
661 -> 662 ;
663 [label="Support <= 0.8\nmse = 0.0\nsamples = 8\nvalue = 5.3"] ;
662 -> 663 ;
664 [label="Freedom <= 0.5\nmse = 0.0\nsamples = 2\nvalue = 5.5"] ;
663 -> 664 ;
665 [label="mse = 0.0\nsamples = 1\nvalue = 5.6"] ;
664 -> 665 ;
666 [label="mse = -0.0\nsamples = 1\nvalue = 5.5"] ;
664 -> 666 ;
667 [label="Freedom <= 0.6\nmse = 0.0\nsamples = 6\nvalue = 5.3"] ;
663 -> 667 ;
668 [label="Support <= 0.8\nmse = 0.0\nsamples = 5\nvalue = 5.2"] ;
667 -> 668 ;
669 [label="Corruption <= 0.7\nmse = 0.0\nsamples = 3\nvalue = 5.3"] ;
668 -> 669 ;
670 [label="mse = 0.0\nsamples = 1\nvalue = 5.3"] ;
669 -> 670 ;
671 [label="GDP <= 9.3\nmse = 0.0\nsamples = 2\nvalue = 5.3"] ;
669 -> 671 ;
672 [label="mse = 0.0\nsamples = 1\nvalue = 5.3"] ;
671 -> 672 ;
673 [label="mse = 0.0\nsamples = 1\nvalue = 5.2"] ;
671 -> 673 ;
674 [label="Corruption <= 0.9\nmse = 0.0\nsamples = 2\nvalue = 5.1"] ;
668 -> 674 ;
675 [label="mse = 0.0\nsamples = 1\nvalue = 5.2"] ;
674 -> 675 ;
676 [label="mse = 0.0\nsamples = 1\nvalue = 5.1"] ;
674 -> 676 ;
677 [label="mse = 0.0\nsamples = 1\nvalue = 5.6"] ;
667 -> 677 ;
678 [label="mse = -0.0\nsamples = 1\nvalue = 4.7"] ;
662 -> 678 ;
679 [label="Support <= 0.8\nmse = 0.0\nsamples = 7\nvalue = 5.0"] ;
661 -> 679 ;
680 [label="Freedom <= 0.6\nmse = 0.0\nsamples = 2\nvalue = 4.9"] ;
679 -> 680 ;
681 [label="mse = 0.0\nsamples = 1\nvalue = 4.8"] ;
680 -> 681 ;
682 [label="mse = 0.0\nsamples = 1\nvalue = 4.9"] ;
680 -> 682 ;
683 [label="Health <= 66.8\nmse = 0.0\nsamples = 5\nvalue = 5.1"] ;
679 -> 683 ;
684 [label="Support <= 0.8\nmse = 0.0\nsamples = 4\nvalue = 5.1"] ;
683 -> 684 ;
685 [label="mse = 0.0\nsamples = 1\nvalue = 5.0"] ;
684 -> 685 ;
686 [label="Corruption <= 0.9\nmse = 0.0\nsamples = 3\nvalue = 5.1"] ;
684 -> 686 ;
687 [label="mse = 0.0\nsamples = 2\nvalue = 5.1"] ;
686 -> 687 ;
688 [label="mse = 0.0\nsamples = 1\nvalue = 5.2"] ;
686 -> 688 ;
689 [label="mse = 0.0\nsamples = 1\nvalue = 5.3"] ;
683 -> 689 ;
690 [label="Generosity <= -0.1\nmse = 0.0\nsamples = 2\nvalue = 5.7"] ;
660 -> 690 ;
691 [label="mse = 0.0\nsamples = 1\nvalue = 5.6"] ;
690 -> 691 ;
692 [label="mse = -0.0\nsamples = 1\nvalue = 6.0"] ;
690 -> 692 ;
693 [label="Freedom <= 0.6\nmse = 0.1\nsamples = 10\nvalue = 5.0"] ;
659 -> 693 ;
694 [label="Corruption <= 0.9\nmse = 0.0\nsamples = 9\nvalue = 5.0"] ;
693 -> 694 ;
695 [label="Generosity <= -0.0\nmse = 0.0\nsamples = 2\nvalue = 4.7"] ;
694 -> 695 ;
696 [label="mse = 0.0\nsamples = 1\nvalue = 4.7"] ;
695 -> 696 ;
697 [label="mse = 0.0\nsamples = 1\nvalue = 4.6"] ;
695 -> 697 ;
698 [label="Freedom <= 0.4\nmse = 0.0\nsamples = 7\nvalue = 5.1"] ;
694 -> 698 ;
699 [label="mse = 0.0\nsamples = 1\nvalue = 4.9"] ;
698 -> 699 ;
700 [label="GDP <= 9.4\nmse = 0.0\nsamples = 6\nvalue = 5.1"] ;
698 -> 700 ;
701 [label="Support <= 0.8\nmse = 0.0\nsamples = 3\nvalue = 5.2"] ;
700 -> 701 ;
702 [label="mse = 0.0\nsamples = 1\nvalue = 5.2"] ;
701 -> 702 ;
703 [label="GDP <= 9.0\nmse = 0.0\nsamples = 2\nvalue = 5.3"] ;
701 -> 703 ;
704 [label="mse = 0.0\nsamples = 1\nvalue = 5.3"] ;
703 -> 704 ;
705 [label="mse = -0.0\nsamples = 1\nvalue = 5.2"] ;
703 -> 705 ;
706 [label="Generosity <= 0.0\nmse = 0.0\nsamples = 3\nvalue = 5.1"] ;
700 -> 706 ;
707 [label="mse = 0.0\nsamples = 1\nvalue = 5.0"] ;
706 -> 707 ;
708 [label="GDP <= 9.5\nmse = 0.0\nsamples = 2\nvalue = 5.1"] ;
706 -> 708 ;
709 [label="mse = 0.0\nsamples = 1\nvalue = 5.1"] ;
708 -> 709 ;
710 [label="mse = -0.0\nsamples = 1\nvalue = 5.1"] ;
708 -> 710 ;
711 [label="mse = -0.0\nsamples = 1\nvalue = 4.3"] ;
693 -> 711 ;
712 [label="GDP <= 9.5\nmse = 0.2\nsamples = 4\nvalue = 4.5"] ;
648 -> 712 ;
713 [label="Health <= 66.8\nmse = 0.0\nsamples = 3\nvalue = 5.0"] ;
712 -> 713 ;
714 [label="GDP <= 9.1\nmse = 0.0\nsamples = 2\nvalue = 4.9"] ;
713 -> 714 ;
715 [label="mse = 0.0\nsamples = 1\nvalue = 4.9"] ;
714 -> 715 ;
716 [label="mse = -0.0\nsamples = 1\nvalue = 4.9"] ;
714 -> 716 ;
717 [label="mse = 0.0\nsamples = 1\nvalue = 5.2"] ;
713 -> 717 ;
718 [label="mse = -0.0\nsamples = 1\nvalue = 4.0"] ;
712 -> 718 ;
719 [label="Generosity <= -0.2\nmse = 0.2\nsamples = 6\nvalue = 4.3"] ;
647 -> 719 ;
720 [label="GDP <= 9.0\nmse = 0.0\nsamples = 2\nvalue = 5.0"] ;
719 -> 720 ;
721 [label="mse = 0.0\nsamples = 1\nvalue = 5.1"] ;
720 -> 721 ;
722 [label="mse = 0.0\nsamples = 1\nvalue = 5.0"] ;
720 -> 722 ;
723 [label="Corruption <= 0.9\nmse = 0.0\nsamples = 4\nvalue = 4.0"] ;
719 -> 723 ;
724 [label="Corruption <= 0.9\nmse = 0.0\nsamples = 3\nvalue = 4.0"] ;
723 -> 724 ;
725 [label="mse = 0.0\nsamples = 1\nvalue = 4.0"] ;
724 -> 725 ;
726 [label="Generosity <= -0.0\nmse = 0.0\nsamples = 2\nvalue = 4.0"] ;
724 -> 726 ;
727 [label="mse = 0.0\nsamples = 1\nvalue = 4.0"] ;
726 -> 727 ;
728 [label="mse = 0.0\nsamples = 1\nvalue = 4.0"] ;
726 -> 728 ;
729 [label="mse = -0.0\nsamples = 1\nvalue = 4.0"] ;
723 -> 729 ;
730 [label="Health <= 64.6\nmse = 0.2\nsamples = 11\nvalue = 5.4"] ;
646 -> 730 ;
731 [label="Support <= 0.9\nmse = 0.2\nsamples = 3\nvalue = 6.2"] ;
730 -> 731 ;
732 [label="mse = 0.0\nsamples = 1\nvalue = 6.8"] ;
731 -> 732 ;
733 [label="Health <= 63.3\nmse = 0.0\nsamples = 2\nvalue = 5.9"] ;
731 -> 733 ;
734 [label="mse = 0.0\nsamples = 1\nvalue = 6.0"] ;
733 -> 734 ;
735 [label="mse = 0.0\nsamples = 1\nvalue = 5.8"] ;
733 -> 735 ;
736 [label="Health <= 66.0\nmse = 0.1\nsamples = 8\nvalue = 5.2"] ;
730 -> 736 ;
737 [label="Health <= 65.5\nmse = 0.0\nsamples = 2\nvalue = 4.8"] ;
736 -> 737 ;
738 [label="mse = 0.0\nsamples = 1\nvalue = 4.9"] ;
737 -> 738 ;
739 [label="mse = -0.0\nsamples = 1\nvalue = 4.7"] ;
737 -> 739 ;
740 [label="Freedom <= 0.5\nmse = 0.0\nsamples = 6\nvalue = 5.3"] ;
736 -> 740 ;
741 [label="Health <= 66.1\nmse = 0.0\nsamples = 3\nvalue = 5.2"] ;
740 -> 741 ;
742 [label="mse = 0.0\nsamples = 1\nvalue = 5.3"] ;
741 -> 742 ;
743 [label="Freedom <= 0.5\nmse = 0.0\nsamples = 2\nvalue = 5.2"] ;
741 -> 743 ;
744 [label="mse = 0.0\nsamples = 1\nvalue = 5.2"] ;
743 -> 744 ;
745 [label="mse = 0.0\nsamples = 1\nvalue = 5.2"] ;
743 -> 745 ;
746 [label="Corruption <= 0.9\nmse = 0.0\nsamples = 3\nvalue = 5.4"] ;
740 -> 746 ;
747 [label="mse = 0.0\nsamples = 1\nvalue = 5.3"] ;
746 -> 747 ;
748 [label="Generosity <= -0.2\nmse = 0.0\nsamples = 2\nvalue = 5.4"] ;
746 -> 748 ;
749 [label="mse = 0.0\nsamples = 1\nvalue = 5.4"] ;
748 -> 749 ;
750 [label="mse = -0.0\nsamples = 1\nvalue = 5.4"] ;
748 -> 750 ;
751 [label="Corruption <= 0.8\nmse = 0.5\nsamples = 204\nvalue = 5.7"] ;
645 -> 751 ;
752 [label="GDP <= 8.7\nmse = 0.4\nsamples = 99\nvalue = 5.9"] ;
751 -> 752 ;
753 [label="Health <= 63.6\nmse = 0.2\nsamples = 21\nvalue = 5.4"] ;
752 -> 753 ;
754 [label="Corruption <= 0.6\nmse = 0.1\nsamples = 7\nvalue = 5.0"] ;
753 -> 754 ;
755 [label="mse = 0.0\nsamples = 1\nvalue = 5.7"] ;
754 -> 755 ;
756 [label="GDP <= 7.8\nmse = 0.1\nsamples = 6\nvalue = 4.9"] ;
754 -> 756 ;
757 [label="mse = 0.0\nsamples = 1\nvalue = 4.4"] ;
756 -> 757 ;
758 [label="Corruption <= 0.7\nmse = 0.0\nsamples = 5\nvalue = 5.0"] ;
756 -> 758 ;
759 [label="GDP <= 7.9\nmse = 0.0\nsamples = 2\nvalue = 5.1"] ;
758 -> 759 ;
760 [label="mse = 0.0\nsamples = 1\nvalue = 5.1"] ;
759 -> 760 ;
761 [label="mse = 0.0\nsamples = 1\nvalue = 5.1"] ;
759 -> 761 ;
762 [label="GDP <= 8.6\nmse = 0.0\nsamples = 3\nvalue = 5.0"] ;
758 -> 762 ;
763 [label="Health <= 62.0\nmse = 0.0\nsamples = 2\nvalue = 4.9"] ;
762 -> 763 ;
764 [label="mse = 0.0\nsamples = 1\nvalue = 4.9"] ;
763 -> 764 ;
765 [label="mse = 0.0\nsamples = 1\nvalue = 4.9"] ;
763 -> 765 ;
766 [label="mse = 0.0\nsamples = 1\nvalue = 5.0"] ;
762 -> 766 ;
767 [label="GDP <= 8.5\nmse = 0.2\nsamples = 14\nvalue = 5.6"] ;
753 -> 767 ;
768 [label="Support <= 0.8\nmse = 0.1\nsamples = 10\nvalue = 5.7"] ;
767 -> 768 ;
769 [label="Generosity <= -0.1\nmse = 0.0\nsamples = 3\nvalue = 5.4"] ;
768 -> 769 ;
770 [label="mse = 0.0\nsamples = 1\nvalue = 5.5"] ;
769 -> 770 ;
771 [label="Generosity <= -0.0\nmse = 0.0\nsamples = 2\nvalue = 5.3"] ;
769 -> 771 ;
772 [label="mse = 0.0\nsamples = 1\nvalue = 5.4"] ;
771 -> 772 ;
773 [label="mse = 0.0\nsamples = 1\nvalue = 5.3"] ;
771 -> 773 ;
774 [label="GDP <= 8.4\nmse = 0.0\nsamples = 7\nvalue = 5.9"] ;
768 -> 774 ;
775 [label="Corruption <= 0.7\nmse = 0.0\nsamples = 2\nvalue = 5.8"] ;
774 -> 775 ;
776 [label="mse = 0.0\nsamples = 1\nvalue = 5.8"] ;
775 -> 776 ;
777 [label="mse = 0.0\nsamples = 1\nvalue = 5.7"] ;
775 -> 777 ;
778 [label="Support <= 0.9\nmse = 0.0\nsamples = 5\nvalue = 6.0"] ;
774 -> 778 ;
779 [label="Health <= 66.6\nmse = 0.0\nsamples = 3\nvalue = 6.1"] ;
778 -> 779 ;
780 [label="mse = 0.0\nsamples = 1\nvalue = 6.3"] ;
779 -> 780 ;
781 [label="Support <= 0.9\nmse = 0.0\nsamples = 2\nvalue = 6.1"] ;
779 -> 781 ;
782 [label="mse = 0.0\nsamples = 1\nvalue = 6.0"] ;
781 -> 782 ;
783 [label="mse = -0.0\nsamples = 1\nvalue = 6.1"] ;
781 -> 783 ;
784 [label="Generosity <= 0.0\nmse = 0.0\nsamples = 2\nvalue = 5.9"] ;
778 -> 784 ;
785 [label="mse = 0.0\nsamples = 1\nvalue = 5.9"] ;
784 -> 785 ;
786 [label="mse = 0.0\nsamples = 1\nvalue = 5.8"] ;
784 -> 786 ;
787 [label="Support <= 0.9\nmse = 0.3\nsamples = 4\nvalue = 5.1"] ;
767 -> 787 ;
788 [label="Support <= 0.9\nmse = 0.1\nsamples = 3\nvalue = 4.9"] ;
787 -> 788 ;
789 [label="Generosity <= -0.0\nmse = 0.0\nsamples = 2\nvalue = 5.0"] ;
788 -> 789 ;
790 [label="mse = 0.0\nsamples = 1\nvalue = 5.1"] ;
789 -> 790 ;
791 [label="mse = 0.0\nsamples = 1\nvalue = 5.0"] ;
789 -> 791 ;
792 [label="mse = 0.0\nsamples = 1\nvalue = 4.5"] ;
788 -> 792 ;
793 [label="mse = 0.0\nsamples = 1\nvalue = 6.0"] ;
787 -> 793 ;
794 [label="Generosity <= -0.2\nmse = 0.4\nsamples = 78\nvalue = 6.0"] ;
752 -> 794 ;
795 [label="Support <= 0.9\nmse = 0.2\nsamples = 22\nvalue = 5.6"] ;
794 -> 795 ;
796 [label="Freedom <= 0.8\nmse = 0.1\nsamples = 17\nvalue = 5.4"] ;
795 -> 796 ;
797 [label="Generosity <= -0.2\nmse = 0.1\nsamples = 16\nvalue = 5.3"] ;
796 -> 797 ;
798 [label="mse = 0.0\nsamples = 1\nvalue = 4.7"] ;
797 -> 798 ;
799 [label="Corruption <= 0.7\nmse = 0.0\nsamples = 15\nvalue = 5.4"] ;
797 -> 799 ;
800 [label="Support <= 0.8\nmse = 0.0\nsamples = 4\nvalue = 5.2"] ;
799 -> 800 ;
801 [label="mse = 0.0\nsamples = 1\nvalue = 5.3"] ;
800 -> 801 ;
802 [label="Health <= 65.3\nmse = 0.0\nsamples = 3\nvalue = 5.2"] ;
800 -> 802 ;
803 [label="GDP <= 9.7\nmse = 0.0\nsamples = 2\nvalue = 5.1"] ;
802 -> 803 ;
804 [label="mse = 0.0\nsamples = 1\nvalue = 5.2"] ;
803 -> 804 ;
805 [label="mse = -0.0\nsamples = 1\nvalue = 5.1"] ;
803 -> 805 ;
806 [label="mse = 0.0\nsamples = 1\nvalue = 5.2"] ;
802 -> 806 ;
807 [label="Corruption <= 0.7\nmse = 0.0\nsamples = 11\nvalue = 5.5"] ;
799 -> 807 ;
808 [label="Support <= 0.9\nmse = 0.0\nsamples = 8\nvalue = 5.5"] ;
807 -> 808 ;
809 [label="Corruption <= 0.7\nmse = 0.0\nsamples = 7\nvalue = 5.6"] ;
808 -> 809 ;
810 [label="mse = 0.0\nsamples = 1\nvalue = 5.7"] ;
809 -> 810 ;
811 [label="GDP <= 9.6\nmse = 0.0\nsamples = 6\nvalue = 5.5"] ;
809 -> 811 ;
812 [label="mse = -0.0\nsamples = 1\nvalue = 5.6"] ;
811 -> 812 ;
813 [label="Support <= 0.9\nmse = 0.0\nsamples = 5\nvalue = 5.5"] ;
811 -> 813 ;
814 [label="Generosity <= -0.2\nmse = 0.0\nsamples = 3\nvalue = 5.5"] ;
813 -> 814 ;
815 [label="Support <= 0.9\nmse = 0.0\nsamples = 2\nvalue = 5.5"] ;
814 -> 815 ;
816 [label="mse = 0.0\nsamples = 1\nvalue = 5.5"] ;
815 -> 816 ;
817 [label="mse = -0.0\nsamples = 1\nvalue = 5.5"] ;
815 -> 817 ;
818 [label="mse = 0.0\nsamples = 1\nvalue = 5.5"] ;
814 -> 818 ;
819 [label="Freedom <= 0.7\nmse = 0.0\nsamples = 2\nvalue = 5.5"] ;
813 -> 819 ;
820 [label="mse = 0.0\nsamples = 1\nvalue = 5.6"] ;
819 -> 820 ;
821 [label="mse = -0.0\nsamples = 1\nvalue = 5.5"] ;
819 -> 821 ;
822 [label="mse = 0.0\nsamples = 1\nvalue = 5.2"] ;
808 -> 822 ;
823 [label="Support <= 0.9\nmse = 0.0\nsamples = 3\nvalue = 5.3"] ;
807 -> 823 ;
824 [label="GDP <= 10.2\nmse = 0.0\nsamples = 2\nvalue = 5.3"] ;
823 -> 824 ;
825 [label="mse = 0.0\nsamples = 1\nvalue = 5.4"] ;
824 -> 825 ;
826 [label="mse = -0.0\nsamples = 1\nvalue = 5.3"] ;
824 -> 826 ;
827 [label="mse = -0.0\nsamples = 1\nvalue = 5.2"] ;
823 -> 827 ;
828 [label="mse = -0.0\nsamples = 1\nvalue = 6.0"] ;
796 -> 828 ;
829 [label="GDP <= 9.8\nmse = 0.0\nsamples = 5\nvalue = 6.0"] ;
795 -> 829 ;
830 [label="mse = 0.0\nsamples = 1\nvalue = 6.6"] ;
829 -> 830 ;
831 [label="GDP <= 10.8\nmse = 0.0\nsamples = 4\nvalue = 5.9"] ;
829 -> 831 ;
832 [label="Support <= 0.9\nmse = 0.0\nsamples = 3\nvalue = 5.9"] ;
831 -> 832 ;
833 [label="Corruption <= 0.7\nmse = 0.0\nsamples = 2\nvalue = 5.9"] ;
832 -> 833 ;
834 [label="mse = 0.0\nsamples = 1\nvalue = 5.9"] ;
833 -> 834 ;
835 [label="mse = -0.0\nsamples = 1\nvalue = 5.9"] ;
833 -> 835 ;
836 [label="mse = 0.0\nsamples = 1\nvalue = 6.0"] ;
832 -> 836 ;
837 [label="mse = -0.0\nsamples = 1\nvalue = 6.1"] ;
831 -> 837 ;
838 [label="Corruption <= 0.7\nmse = 0.4\nsamples = 56\nvalue = 6.2"] ;
794 -> 838 ;
839 [label="Health <= 63.1\nmse = 0.3\nsamples = 24\nvalue = 6.5"] ;
838 -> 839 ;
840 [label="Generosity <= -0.1\nmse = 0.0\nsamples = 3\nvalue = 5.6"] ;
839 -> 840 ;
841 [label="Support <= 0.9\nmse = 0.0\nsamples = 2\nvalue = 5.5"] ;
840 -> 841 ;
842 [label="mse = 0.0\nsamples = 1\nvalue = 5.5"] ;
841 -> 842 ;
843 [label="mse = 0.0\nsamples = 1\nvalue = 5.5"] ;
841 -> 843 ;
844 [label="mse = -0.0\nsamples = 1\nvalue = 5.6"] ;
840 -> 844 ;
845 [label="Generosity <= -0.2\nmse = 0.3\nsamples = 21\nvalue = 6.6"] ;
839 -> 845 ;
846 [label="mse = 0.0\nsamples = 1\nvalue = 7.4"] ;
845 -> 846 ;
847 [label="Generosity <= -0.1\nmse = 0.2\nsamples = 20\nvalue = 6.5"] ;
845 -> 847 ;
848 [label="Corruption <= 0.7\nmse = 0.2\nsamples = 7\nvalue = 6.0"] ;
847 -> 848 ;
849 [label="Corruption <= 0.7\nmse = 0.0\nsamples = 5\nvalue = 5.7"] ;
848 -> 849 ;
850 [label="Support <= 0.9\nmse = 0.0\nsamples = 4\nvalue = 5.7"] ;
849 -> 850 ;
851 [label="Corruption <= 0.6\nmse = 0.0\nsamples = 3\nvalue = 5.6"] ;
850 -> 851 ;
852 [label="mse = 0.0\nsamples = 1\nvalue = 5.7"] ;
851 -> 852 ;
853 [label="Support <= 0.9\nmse = 0.0\nsamples = 2\nvalue = 5.6"] ;
851 -> 853 ;
854 [label="mse = 0.0\nsamples = 1\nvalue = 5.6"] ;
853 -> 854 ;
855 [label="mse = -0.0\nsamples = 1\nvalue = 5.6"] ;
853 -> 855 ;
856 [label="mse = -0.0\nsamples = 1\nvalue = 5.8"] ;
850 -> 856 ;
857 [label="mse = 0.0\nsamples = 1\nvalue = 6.0"] ;
849 -> 857 ;
858 [label="Corruption <= 0.7\nmse = 0.1\nsamples = 2\nvalue = 6.5"] ;
848 -> 858 ;
859 [label="mse = 0.0\nsamples = 1\nvalue = 6.2"] ;
858 -> 859 ;
860 [label="mse = 0.0\nsamples = 1\nvalue = 7.0"] ;
858 -> 860 ;
861 [label="Freedom <= 0.9\nmse = 0.1\nsamples = 13\nvalue = 6.7"] ;
847 -> 861 ;
862 [label="Support <= 0.9\nmse = 0.0\nsamples = 9\nvalue = 6.9"] ;
861 -> 862 ;
863 [label="Freedom <= 0.8\nmse = 0.0\nsamples = 7\nvalue = 6.8"] ;
862 -> 863 ;
864 [label="Health <= 66.9\nmse = 0.0\nsamples = 5\nvalue = 6.8"] ;
863 -> 864 ;
865 [label="Corruption <= 0.7\nmse = 0.0\nsamples = 4\nvalue = 6.8"] ;
864 -> 865 ;
866 [label="Generosity <= -0.1\nmse = 0.0\nsamples = 3\nvalue = 6.8"] ;
865 -> 866 ;
867 [label="mse = 0.0\nsamples = 1\nvalue = 6.8"] ;
866 -> 867 ;
868 [label="Health <= 65.5\nmse = 0.0\nsamples = 2\nvalue = 6.8"] ;
866 -> 868 ;
869 [label="mse = 0.0\nsamples = 1\nvalue = 6.8"] ;
868 -> 869 ;
870 [label="mse = 0.0\nsamples = 1\nvalue = 6.8"] ;
868 -> 870 ;
871 [label="mse = -0.0\nsamples = 1\nvalue = 6.7"] ;
865 -> 871 ;
872 [label="mse = -0.0\nsamples = 1\nvalue = 6.7"] ;
864 -> 872 ;
873 [label="Freedom <= 0.8\nmse = 0.0\nsamples = 2\nvalue = 6.9"] ;
863 -> 873 ;
874 [label="mse = 0.0\nsamples = 1\nvalue = 6.9"] ;
873 -> 874 ;
875 [label="mse = -0.0\nsamples = 1\nvalue = 6.9"] ;
873 -> 875 ;
876 [label="Corruption <= 0.7\nmse = 0.0\nsamples = 2\nvalue = 7.0"] ;
862 -> 876 ;
877 [label="mse = 0.0\nsamples = 1\nvalue = 7.1"] ;
876 -> 877 ;
878 [label="mse = -0.0\nsamples = 1\nvalue = 7.0"] ;
876 -> 878 ;
879 [label="Corruption <= 0.5\nmse = 0.1\nsamples = 4\nvalue = 6.3"] ;
861 -> 879 ;
880 [label="mse = 0.0\nsamples = 1\nvalue = 5.7"] ;
879 -> 880 ;
881 [label="Support <= 0.8\nmse = 0.0\nsamples = 3\nvalue = 6.3"] ;
879 -> 881 ;
882 [label="mse = 0.0\nsamples = 1\nvalue = 6.5"] ;
881 -> 882 ;
883 [label="Corruption <= 0.6\nmse = 0.0\nsamples = 2\nvalue = 6.3"] ;
881 -> 883 ;
884 [label="mse = 0.0\nsamples = 1\nvalue = 6.2"] ;
883 -> 884 ;
885 [label="mse = 0.0\nsamples = 1\nvalue = 6.3"] ;
883 -> 885 ;
886 [label="Generosity <= 0.3\nmse = 0.3\nsamples = 32\nvalue = 5.9"] ;
838 -> 886 ;
887 [label="Support <= 0.9\nmse = 0.2\nsamples = 31\nvalue = 6.0"] ;
886 -> 887 ;
888 [label="GDP <= 8.8\nmse = 0.2\nsamples = 30\nvalue = 6.0"] ;
887 -> 888 ;
889 [label="Corruption <= 0.8\nmse = 0.1\nsamples = 3\nvalue = 5.3"] ;
888 -> 889 ;
890 [label="Freedom <= 0.8\nmse = 0.0\nsamples = 2\nvalue = 5.1"] ;
889 -> 890 ;
891 [label="mse = 0.0\nsamples = 1\nvalue = 5.2"] ;
890 -> 891 ;
892 [label="mse = -0.0\nsamples = 1\nvalue = 5.0"] ;
890 -> 892 ;
893 [label="mse = 0.0\nsamples = 1\nvalue = 5.8"] ;
889 -> 893 ;
894 [label="Generosity <= -0.1\nmse = 0.2\nsamples = 27\nvalue = 6.1"] ;
888 -> 894 ;
895 [label="GDP <= 9.4\nmse = 0.2\nsamples = 10\nvalue = 5.8"] ;
894 -> 895 ;
896 [label="GDP <= 8.9\nmse = 0.1\nsamples = 7\nvalue = 5.6"] ;
895 -> 896 ;
897 [label="Support <= 0.8\nmse = 0.0\nsamples = 3\nvalue = 5.9"] ;
896 -> 897 ;
898 [label="mse = 0.0\nsamples = 1\nvalue = 6.0"] ;
897 -> 898 ;
899 [label="Generosity <= -0.1\nmse = 0.0\nsamples = 2\nvalue = 5.9"] ;
897 -> 899 ;
900 [label="mse = 0.0\nsamples = 1\nvalue = 5.9"] ;
899 -> 900 ;
901 [label="mse = 0.0\nsamples = 1\nvalue = 5.9"] ;
899 -> 901 ;
902 [label="Corruption <= 0.7\nmse = 0.1\nsamples = 4\nvalue = 5.4"] ;
896 -> 902 ;
903 [label="mse = 0.0\nsamples = 1\nvalue = 5.9"] ;
902 -> 903 ;
904 [label="GDP <= 9.2\nmse = 0.0\nsamples = 3\nvalue = 5.3"] ;
902 -> 904 ;
905 [label="Generosity <= -0.1\nmse = 0.0\nsamples = 2\nvalue = 5.4"] ;
904 -> 905 ;
906 [label="mse = 0.0\nsamples = 1\nvalue = 5.3"] ;
905 -> 906 ;
907 [label="mse = 0.0\nsamples = 1\nvalue = 5.4"] ;
905 -> 907 ;
908 [label="mse = -0.0\nsamples = 1\nvalue = 5.1"] ;
904 -> 908 ;
909 [label="GDP <= 9.6\nmse = 0.1\nsamples = 3\nvalue = 6.5"] ;
895 -> 909 ;
910 [label="mse = 0.0\nsamples = 1\nvalue = 6.2"] ;
909 -> 910 ;
911 [label="Corruption <= 0.8\nmse = 0.0\nsamples = 2\nvalue = 6.7"] ;
909 -> 911 ;
912 [label="mse = 0.0\nsamples = 1\nvalue = 6.5"] ;
911 -> 912 ;
913 [label="mse = 0.0\nsamples = 1\nvalue = 6.8"] ;
911 -> 913 ;
914 [label="GDP <= 9.1\nmse = 0.1\nsamples = 17\nvalue = 6.2"] ;
894 -> 914 ;
915 [label="Corruption <= 0.8\nmse = 0.0\nsamples = 7\nvalue = 6.4"] ;
914 -> 915 ;
916 [label="GDP <= 8.9\nmse = 0.0\nsamples = 6\nvalue = 6.4"] ;
915 -> 916 ;
917 [label="Generosity <= 0.2\nmse = 0.0\nsamples = 5\nvalue = 6.4"] ;
916 -> 917 ;
918 [label="Support <= 0.8\nmse = 0.0\nsamples = 3\nvalue = 6.3"] ;
917 -> 918 ;
919 [label="mse = 0.0\nsamples = 1\nvalue = 6.4"] ;
918 -> 919 ;
920 [label="Corruption <= 0.8\nmse = 0.0\nsamples = 2\nvalue = 6.3"] ;
918 -> 920 ;
921 [label="mse = -0.0\nsamples = 1\nvalue = 6.3"] ;
920 -> 921 ;
922 [label="mse = -0.0\nsamples = 1\nvalue = 6.3"] ;
920 -> 922 ;
923 [label="Support <= 0.8\nmse = 0.0\nsamples = 2\nvalue = 6.4"] ;
917 -> 923 ;
924 [label="mse = 0.0\nsamples = 1\nvalue = 6.5"] ;
923 -> 924 ;
925 [label="mse = 0.0\nsamples = 1\nvalue = 6.4"] ;
923 -> 925 ;
926 [label="mse = 0.0\nsamples = 1\nvalue = 6.6"] ;
916 -> 926 ;
927 [label="mse = -0.0\nsamples = 1\nvalue = 6.0"] ;
915 -> 927 ;
928 [label="Health <= 65.5\nmse = 0.1\nsamples = 10\nvalue = 6.0"] ;
914 -> 928 ;
929 [label="Freedom <= 0.8\nmse = 0.0\nsamples = 7\nvalue = 5.7"] ;
928 -> 929 ;
930 [label="Corruption <= 0.8\nmse = 0.0\nsamples = 6\nvalue = 5.8"] ;
929 -> 930 ;
931 [label="GDP <= 9.2\nmse = 0.0\nsamples = 4\nvalue = 5.8"] ;
930 -> 931 ;
932 [label="Health <= 64.6\nmse = 0.0\nsamples = 2\nvalue = 5.8"] ;
931 -> 932 ;
933 [label="mse = 0.0\nsamples = 1\nvalue = 5.8"] ;
932 -> 933 ;
934 [label="mse = -0.0\nsamples = 1\nvalue = 5.8"] ;
932 -> 934 ;
935 [label="Generosity <= 0.1\nmse = 0.0\nsamples = 2\nvalue = 5.7"] ;
931 -> 935 ;
936 [label="mse = 0.0\nsamples = 1\nvalue = 5.8"] ;
935 -> 936 ;
937 [label="mse = 0.0\nsamples = 1\nvalue = 5.7"] ;
935 -> 937 ;
938 [label="Health <= 63.8\nmse = 0.0\nsamples = 2\nvalue = 6.0"] ;
930 -> 938 ;
939 [label="mse = 0.0\nsamples = 1\nvalue = 6.0"] ;
938 -> 939 ;
940 [label="mse = 0.0\nsamples = 1\nvalue = 6.0"] ;
938 -> 940 ;
941 [label="mse = 0.0\nsamples = 1\nvalue = 5.4"] ;
929 -> 941 ;
942 [label="Health <= 66.6\nmse = 0.0\nsamples = 3\nvalue = 6.3"] ;
928 -> 942 ;
943 [label="Health <= 66.1\nmse = 0.0\nsamples = 2\nvalue = 6.4"] ;
942 -> 943 ;
944 [label="mse = 0.0\nsamples = 1\nvalue = 6.4"] ;
943 -> 944 ;
945 [label="mse = 0.0\nsamples = 1\nvalue = 6.5"] ;
943 -> 945 ;
946 [label="mse = -0.0\nsamples = 1\nvalue = 6.2"] ;
942 -> 946 ;
947 [label="mse = 0.0\nsamples = 1\nvalue = 5.1"] ;
887 -> 947 ;
948 [label="mse = -0.0\nsamples = 1\nvalue = 4.3"] ;
886 -> 948 ;
949 [label="Support <= 0.9\nmse = 0.4\nsamples = 105\nvalue = 5.4"] ;
751 -> 949 ;
950 [label="Support <= 0.9\nmse = 0.3\nsamples = 45\nvalue = 5.1"] ;
949 -> 950 ;
951 [label="Corruption <= 0.9\nmse = 0.3\nsamples = 44\nvalue = 5.2"] ;
950 -> 951 ;
952 [label="GDP <= 8.9\nmse = 0.4\nsamples = 19\nvalue = 4.9"] ;
951 -> 952 ;
953 [label="Support <= 0.8\nmse = 0.2\nsamples = 9\nvalue = 5.3"] ;
952 -> 953 ;
954 [label="Health <= 63.8\nmse = 0.1\nsamples = 2\nvalue = 4.8"] ;
953 -> 954 ;
955 [label="mse = 0.0\nsamples = 1\nvalue = 4.6"] ;
954 -> 955 ;
956 [label="mse = -0.0\nsamples = 1\nvalue = 5.1"] ;
954 -> 956 ;
957 [label="Support <= 0.8\nmse = 0.1\nsamples = 7\nvalue = 5.6"] ;
953 -> 957 ;
958 [label="Generosity <= -0.0\nmse = 0.1\nsamples = 6\nvalue = 5.7"] ;
957 -> 958 ;
959 [label="mse = 0.0\nsamples = 1\nvalue = 5.3"] ;
958 -> 959 ;
960 [label="Corruption <= 0.9\nmse = 0.0\nsamples = 5\nvalue = 5.8"] ;
958 -> 960 ;
961 [label="GDP <= 8.5\nmse = 0.0\nsamples = 4\nvalue = 5.9"] ;
960 -> 961 ;
962 [label="mse = 0.0\nsamples = 1\nvalue = 6.0"] ;
961 -> 962 ;
963 [label="Support <= 0.8\nmse = 0.0\nsamples = 3\nvalue = 5.9"] ;
961 -> 963 ;
964 [label="Health <= 62.6\nmse = 0.0\nsamples = 2\nvalue = 5.9"] ;
963 -> 964 ;
965 [label="mse = 0.0\nsamples = 1\nvalue = 5.9"] ;
964 -> 965 ;
966 [label="mse = 0.0\nsamples = 1\nvalue = 5.9"] ;
964 -> 966 ;
967 [label="mse = -0.0\nsamples = 1\nvalue = 5.8"] ;
963 -> 967 ;
968 [label="mse = 0.0\nsamples = 1\nvalue = 5.4"] ;
960 -> 968 ;
969 [label="mse = -0.0\nsamples = 1\nvalue = 5.1"] ;
957 -> 969 ;
970 [label="GDP <= 9.7\nmse = 0.3\nsamples = 10\nvalue = 4.6"] ;
952 -> 970 ;
971 [label="Support <= 0.8\nmse = 0.2\nsamples = 9\nvalue = 4.5"] ;
970 -> 971 ;
972 [label="mse = 0.0\nsamples = 1\nvalue = 5.9"] ;
971 -> 972 ;
973 [label="Freedom <= 0.7\nmse = 0.0\nsamples = 8\nvalue = 4.4"] ;
971 -> 973 ;
974 [label="Freedom <= 0.6\nmse = 0.0\nsamples = 2\nvalue = 4.6"] ;
973 -> 974 ;
975 [label="mse = 0.0\nsamples = 1\nvalue = 4.6"] ;
974 -> 975 ;
976 [label="mse = 0.0\nsamples = 1\nvalue = 4.6"] ;
974 -> 976 ;
977 [label="Support <= 0.8\nmse = 0.0\nsamples = 6\nvalue = 4.3"] ;
973 -> 977 ;
978 [label="Freedom <= 0.8\nmse = 0.0\nsamples = 4\nvalue = 4.3"] ;
977 -> 978 ;
979 [label="Freedom <= 0.8\nmse = 0.0\nsamples = 2\nvalue = 4.2"] ;
978 -> 979 ;
980 [label="mse = 0.0\nsamples = 1\nvalue = 4.2"] ;
979 -> 980 ;
981 [label="mse = 0.0\nsamples = 1\nvalue = 4.2"] ;
979 -> 981 ;
982 [label="Health <= 66.7\nmse = 0.0\nsamples = 2\nvalue = 4.3"] ;
978 -> 982 ;
983 [label="mse = 0.0\nsamples = 1\nvalue = 4.4"] ;
982 -> 983 ;
984 [label="mse = 0.0\nsamples = 1\nvalue = 4.3"] ;
982 -> 984 ;
985 [label="Freedom <= 0.8\nmse = 0.0\nsamples = 2\nvalue = 4.4"] ;
977 -> 985 ;
986 [label="mse = 0.0\nsamples = 1\nvalue = 4.4"] ;
985 -> 986 ;
987 [label="mse = 0.0\nsamples = 1\nvalue = 4.4"] ;
985 -> 987 ;
988 [label="mse = -0.0\nsamples = 1\nvalue = 5.9"] ;
970 -> 988 ;
989 [label="Corruption <= 0.9\nmse = 0.1\nsamples = 25\nvalue = 5.3"] ;
951 -> 989 ;
990 [label="Generosity <= -0.1\nmse = 0.0\nsamples = 5\nvalue = 5.6"] ;
989 -> 990 ;
991 [label="Freedom <= 0.8\nmse = 0.0\nsamples = 2\nvalue = 5.8"] ;
990 -> 991 ;
992 [label="mse = 0.0\nsamples = 1\nvalue = 5.9"] ;
991 -> 992 ;
993 [label="mse = -0.0\nsamples = 1\nvalue = 5.7"] ;
991 -> 993 ;
994 [label="Generosity <= 0.2\nmse = 0.0\nsamples = 3\nvalue = 5.5"] ;
990 -> 994 ;
995 [label="Generosity <= -0.1\nmse = 0.0\nsamples = 2\nvalue = 5.5"] ;
994 -> 995 ;
996 [label="mse = 0.0\nsamples = 1\nvalue = 5.6"] ;
995 -> 996 ;
997 [label="mse = 0.0\nsamples = 1\nvalue = 5.5"] ;
995 -> 997 ;
998 [label="mse = 0.0\nsamples = 1\nvalue = 5.3"] ;
994 -> 998 ;
999 [label="Freedom <= 0.8\nmse = 0.1\nsamples = 20\nvalue = 5.2"] ;
989 -> 999 ;
1000 [label="Generosity <= -0.1\nmse = 0.1\nsamples = 14\nvalue = 5.1"] ;
999 -> 1000 ;
1001 [label="Generosity <= -0.2\nmse = 0.1\nsamples = 7\nvalue = 4.9"] ;
1000 -> 1001 ;
1002 [label="Generosity <= -0.2\nmse = 0.0\nsamples = 2\nvalue = 5.3"] ;
1001 -> 1002 ;
1003 [label="mse = 0.0\nsamples = 1\nvalue = 5.1"] ;
1002 -> 1003 ;
1004 [label="mse = 0.0\nsamples = 1\nvalue = 5.4"] ;
1002 -> 1004 ;
1005 [label="Corruption <= 0.9\nmse = 0.0\nsamples = 5\nvalue = 4.8"] ;
1001 -> 1005 ;
1006 [label="GDP <= 8.2\nmse = 0.0\nsamples = 4\nvalue = 4.8"] ;
1005 -> 1006 ;
1007 [label="mse = 0.0\nsamples = 1\nvalue = 5.1"] ;
1006 -> 1007 ;
1008 [label="GDP <= 8.9\nmse = 0.0\nsamples = 3\nvalue = 4.7"] ;
1006 -> 1008 ;
1009 [label="mse = 0.0\nsamples = 1\nvalue = 4.8"] ;
1008 -> 1009 ;
1010 [label="Freedom <= 0.7\nmse = 0.0\nsamples = 2\nvalue = 4.7"] ;
1008 -> 1010 ;
1011 [label="mse = 0.0\nsamples = 1\nvalue = 4.6"] ;
1010 -> 1011 ;
1012 [label="mse = 0.0\nsamples = 1\nvalue = 4.7"] ;
1010 -> 1012 ;
1013 [label="mse = 0.0\nsamples = 1\nvalue = 5.0"] ;
1005 -> 1013 ;
1014 [label="Generosity <= -0.0\nmse = 0.1\nsamples = 7\nvalue = 5.3"] ;
1000 -> 1014 ;
1015 [label="Generosity <= -0.0\nmse = 0.1\nsamples = 3\nvalue = 5.5"] ;
1014 -> 1015 ;
1016 [label="Freedom <= 0.7\nmse = 0.0\nsamples = 2\nvalue = 5.3"] ;
1015 -> 1016 ;
1017 [label="mse = 0.0\nsamples = 1\nvalue = 5.1"] ;
1016 -> 1017 ;
1018 [label="mse = -0.0\nsamples = 1\nvalue = 5.4"] ;
1016 -> 1018 ;
1019 [label="mse = 0.0\nsamples = 1\nvalue = 5.8"] ;
1015 -> 1019 ;
1020 [label="Corruption <= 1.0\nmse = 0.0\nsamples = 4\nvalue = 5.1"] ;
1014 -> 1020 ;
1021 [label="Corruption <= 0.9\nmse = 0.0\nsamples = 3\nvalue = 5.0"] ;
1020 -> 1021 ;
1022 [label="mse = 0.0\nsamples = 1\nvalue = 5.0"] ;
1021 -> 1022 ;
1023 [label="Support <= 0.8\nmse = 0.0\nsamples = 2\nvalue = 5.0"] ;
1021 -> 1023 ;
1024 [label="mse = 0.0\nsamples = 1\nvalue = 5.0"] ;
1023 -> 1024 ;
1025 [label="mse = -0.0\nsamples = 1\nvalue = 5.0"] ;
1023 -> 1025 ;
1026 [label="mse = 0.0\nsamples = 1\nvalue = 5.3"] ;
1020 -> 1026 ;
1027 [label="Support <= 0.8\nmse = 0.1\nsamples = 6\nvalue = 5.5"] ;
999 -> 1027 ;
1028 [label="Generosity <= 0.3\nmse = 0.0\nsamples = 3\nvalue = 5.2"] ;
1027 -> 1028 ;
1029 [label="mse = 0.0\nsamples = 1\nvalue = 5.3"] ;
1028 -> 1029 ;
1030 [label="Generosity <= 0.5\nmse = 0.0\nsamples = 2\nvalue = 5.1"] ;
1028 -> 1030 ;
1031 [label="mse = 0.0\nsamples = 1\nvalue = 5.1"] ;
1030 -> 1031 ;
1032 [label="mse = -0.0\nsamples = 1\nvalue = 5.1"] ;
1030 -> 1032 ;
1033 [label="Health <= 66.4\nmse = 0.0\nsamples = 3\nvalue = 5.7"] ;
1027 -> 1033 ;
1034 [label="Corruption <= 0.9\nmse = 0.0\nsamples = 2\nvalue = 5.6"] ;
1033 -> 1034 ;
1035 [label="mse = 0.0\nsamples = 1\nvalue = 5.6"] ;
1034 -> 1035 ;
1036 [label="mse = -0.0\nsamples = 1\nvalue = 5.6"] ;
1034 -> 1036 ;
1037 [label="mse = -0.0\nsamples = 1\nvalue = 6.1"] ;
1033 -> 1037 ;
1038 [label="mse = -0.0\nsamples = 1\nvalue = 3.9"] ;
950 -> 1038 ;
1039 [label="Corruption <= 0.9\nmse = 0.3\nsamples = 60\nvalue = 5.6"] ;
949 -> 1039 ;
1040 [label="Health <= 64.5\nmse = 0.1\nsamples = 25\nvalue = 6.0"] ;
1039 -> 1040 ;
1041 [label="Support <= 0.9\nmse = 0.0\nsamples = 5\nvalue = 5.6"] ;
1040 -> 1041 ;
1042 [label="Generosity <= -0.1\nmse = 0.0\nsamples = 3\nvalue = 5.7"] ;
1041 -> 1042 ;
1043 [label="mse = 0.0\nsamples = 1\nvalue = 5.8"] ;
1042 -> 1043 ;
1044 [label="Freedom <= 0.9\nmse = 0.0\nsamples = 2\nvalue = 5.7"] ;
1042 -> 1044 ;
1045 [label="mse = 0.0\nsamples = 1\nvalue = 5.6"] ;
1044 -> 1045 ;
1046 [label="mse = 0.0\nsamples = 1\nvalue = 5.7"] ;
1044 -> 1046 ;
1047 [label="GDP <= 9.8\nmse = 0.0\nsamples = 2\nvalue = 5.5"] ;
1041 -> 1047 ;
1048 [label="mse = 0.0\nsamples = 1\nvalue = 5.5"] ;
1047 -> 1048 ;
1049 [label="mse = 0.0\nsamples = 1\nvalue = 5.6"] ;
1047 -> 1049 ;
1050 [label="Corruption <= 0.9\nmse = 0.1\nsamples = 20\nvalue = 6.1"] ;
1040 -> 1050 ;
1051 [label="GDP <= 9.9\nmse = 0.0\nsamples = 8\nvalue = 6.3"] ;
1050 -> 1051 ;
1052 [label="Support <= 0.9\nmse = 0.0\nsamples = 4\nvalue = 6.4"] ;
1051 -> 1052 ;
1053 [label="Generosity <= -0.1\nmse = 0.0\nsamples = 2\nvalue = 6.3"] ;
1052 -> 1053 ;
1054 [label="mse = 0.0\nsamples = 1\nvalue = 6.4"] ;
1053 -> 1054 ;
1055 [label="mse = 0.0\nsamples = 1\nvalue = 6.3"] ;
1053 -> 1055 ;
1056 [label="Health <= 65.9\nmse = 0.0\nsamples = 2\nvalue = 6.5"] ;
1052 -> 1056 ;
1057 [label="mse = 0.0\nsamples = 1\nvalue = 6.6"] ;
1056 -> 1057 ;
1058 [label="mse = -0.0\nsamples = 1\nvalue = 6.5"] ;
1056 -> 1058 ;
1059 [label="GDP <= 10.2\nmse = 0.0\nsamples = 4\nvalue = 6.2"] ;
1051 -> 1059 ;
1060 [label="GDP <= 10.0\nmse = 0.0\nsamples = 3\nvalue = 6.0"] ;
1059 -> 1060 ;
1061 [label="mse = 0.0\nsamples = 1\nvalue = 6.2"] ;
1060 -> 1061 ;
1062 [label="Freedom <= 0.8\nmse = 0.0\nsamples = 2\nvalue = 6.0"] ;
1060 -> 1062 ;
1063 [label="mse = 0.0\nsamples = 1\nvalue = 6.0"] ;
1062 -> 1063 ;
1064 [label="mse = 0.0\nsamples = 1\nvalue = 6.0"] ;
1062 -> 1064 ;
1065 [label="mse = 0.0\nsamples = 1\nvalue = 6.3"] ;
1059 -> 1065 ;
1066 [label="GDP <= 9.0\nmse = 0.0\nsamples = 12\nvalue = 5.9"] ;
1050 -> 1066 ;
1067 [label="mse = 0.0\nsamples = 1\nvalue = 5.3"] ;
1066 -> 1067 ;
1068 [label="Corruption <= 0.9\nmse = 0.0\nsamples = 11\nvalue = 6.0"] ;
1066 -> 1068 ;
1069 [label="Support <= 0.9\nmse = 0.0\nsamples = 9\nvalue = 6.0"] ;
1068 -> 1069 ;
1070 [label="Generosity <= -0.2\nmse = 0.0\nsamples = 8\nvalue = 6.0"] ;
1069 -> 1070 ;
1071 [label="mse = 0.0\nsamples = 1\nvalue = 6.2"] ;
1070 -> 1071 ;
1072 [label="GDP <= 9.3\nmse = 0.0\nsamples = 7\nvalue = 6.0"] ;
1070 -> 1072 ;
1073 [label="mse = 0.0\nsamples = 1\nvalue = 5.9"] ;
1072 -> 1073 ;
1074 [label="Generosity <= 0.3\nmse = 0.0\nsamples = 6\nvalue = 6.0"] ;
1072 -> 1074 ;
1075 [label="Freedom <= 0.7\nmse = 0.0\nsamples = 4\nvalue = 6.0"] ;
1074 -> 1075 ;
1076 [label="mse = 0.0\nsamples = 1\nvalue = 6.1"] ;
1075 -> 1076 ;
1077 [label="Freedom <= 0.9\nmse = 0.0\nsamples = 3\nvalue = 6.0"] ;
1075 -> 1077 ;
1078 [label="GDP <= 9.7\nmse = 0.0\nsamples = 2\nvalue = 6.0"] ;
1077 -> 1078 ;
1079 [label="mse = 0.0\nsamples = 1\nvalue = 6.0"] ;
1078 -> 1079 ;
1080 [label="mse = 0.0\nsamples = 1\nvalue = 6.0"] ;
1078 -> 1080 ;
1081 [label="mse = 0.0\nsamples = 1\nvalue = 5.9"] ;
1077 -> 1081 ;
1082 [label="Generosity <= 0.3\nmse = 0.0\nsamples = 2\nvalue = 6.0"] ;
1074 -> 1082 ;
1083 [label="mse = 0.0\nsamples = 1\nvalue = 6.0"] ;
1082 -> 1083 ;
1084 [label="mse = 0.0\nsamples = 1\nvalue = 6.1"] ;
1082 -> 1084 ;
1085 [label="mse = 0.0\nsamples = 1\nvalue = 6.4"] ;
1069 -> 1085 ;
1086 [label="Support <= 0.9\nmse = 0.0\nsamples = 2\nvalue = 5.8"] ;
1068 -> 1086 ;
1087 [label="mse = 0.0\nsamples = 1\nvalue = 5.8"] ;
1086 -> 1087 ;
1088 [label="mse = 0.0\nsamples = 1\nvalue = 5.9"] ;
1086 -> 1088 ;
1089 [label="Freedom <= 0.8\nmse = 0.3\nsamples = 35\nvalue = 5.4"] ;
1039 -> 1089 ;
1090 [label="GDP <= 10.1\nmse = 0.2\nsamples = 24\nvalue = 5.2"] ;
1089 -> 1090 ;
1091 [label="Support <= 0.9\nmse = 0.1\nsamples = 20\nvalue = 5.1"] ;
1090 -> 1091 ;
1092 [label="mse = 0.0\nsamples = 1\nvalue = 5.7"] ;
1091 -> 1092 ;
1093 [label="Health <= 67.0\nmse = 0.1\nsamples = 19\nvalue = 5.1"] ;
1091 -> 1093 ;
1094 [label="Corruption <= 0.9\nmse = 0.1\nsamples = 18\nvalue = 5.0"] ;
1093 -> 1094 ;
1095 [label="Corruption <= 0.9\nmse = 0.0\nsamples = 16\nvalue = 5.0"] ;
1094 -> 1095 ;
1096 [label="mse = 0.0\nsamples = 1\nvalue = 5.6"] ;
1095 -> 1096 ;
1097 [label="Freedom <= 0.6\nmse = 0.0\nsamples = 15\nvalue = 5.0"] ;
1095 -> 1097 ;
1098 [label="mse = 0.0\nsamples = 1\nvalue = 5.4"] ;
1097 -> 1098 ;
1099 [label="Generosity <= 0.3\nmse = 0.0\nsamples = 14\nvalue = 4.9"] ;
1097 -> 1099 ;
1100 [label="Health <= 66.4\nmse = 0.0\nsamples = 13\nvalue = 4.9"] ;
1099 -> 1100 ;
1101 [label="Corruption <= 0.9\nmse = 0.0\nsamples = 11\nvalue = 4.9"] ;
1100 -> 1101 ;
1102 [label="Support <= 0.9\nmse = 0.0\nsamples = 10\nvalue = 4.9"] ;
1101 -> 1102 ;
1103 [label="Support <= 0.9\nmse = 0.0\nsamples = 2\nvalue = 4.8"] ;
1102 -> 1103 ;
1104 [label="mse = 0.0\nsamples = 1\nvalue = 4.8"] ;
1103 -> 1104 ;
1105 [label="mse = 0.0\nsamples = 1\nvalue = 4.7"] ;
1103 -> 1105 ;
1106 [label="Freedom <= 0.8\nmse = 0.0\nsamples = 8\nvalue = 4.9"] ;
1102 -> 1106 ;
1107 [label="Corruption <= 0.9\nmse = 0.0\nsamples = 6\nvalue = 4.9"] ;
1106 -> 1107 ;
1108 [label="GDP <= 9.2\nmse = 0.0\nsamples = 2\nvalue = 5.0"] ;
1107 -> 1108 ;
1109 [label="mse = 0.0\nsamples = 1\nvalue = 5.0"] ;
1108 -> 1109 ;
1110 [label="mse = 0.0\nsamples = 1\nvalue = 5.0"] ;
1108 -> 1110 ;
1111 [label="Health <= 66.0\nmse = 0.0\nsamples = 4\nvalue = 4.9"] ;
1107 -> 1111 ;
1112 [label="Health <= 61.3\nmse = 0.0\nsamples = 3\nvalue = 4.9"] ;
1111 -> 1112 ;
1113 [label="mse = 0.0\nsamples = 1\nvalue = 4.9"] ;
1112 -> 1113 ;
1114 [label="Corruption <= 0.9\nmse = 0.0\nsamples = 2\nvalue = 4.9"] ;
1112 -> 1114 ;
1115 [label="mse = 0.0\nsamples = 1\nvalue = 4.9"] ;
1114 -> 1115 ;
1116 [label="mse = -0.0\nsamples = 1\nvalue = 4.9"] ;
1114 -> 1116 ;
1117 [label="mse = 0.0\nsamples = 1\nvalue = 4.9"] ;
1111 -> 1117 ;
1118 [label="Support <= 0.9\nmse = 0.0\nsamples = 2\nvalue = 4.8"] ;
1106 -> 1118 ;
1119 [label="mse = 0.0\nsamples = 1\nvalue = 4.9"] ;
1118 -> 1119 ;
1120 [label="mse = 0.0\nsamples = 1\nvalue = 4.8"] ;
1118 -> 1120 ;
1121 [label="mse = -0.0\nsamples = 1\nvalue = 4.7"] ;
1101 -> 1121 ;
1122 [label="Support <= 0.9\nmse = 0.0\nsamples = 2\nvalue = 5.1"] ;
1100 -> 1122 ;
1123 [label="mse = 0.0\nsamples = 1\nvalue = 5.1"] ;
1122 -> 1123 ;
1124 [label="mse = 0.0\nsamples = 1\nvalue = 5.1"] ;
1122 -> 1124 ;
1125 [label="mse = 0.0\nsamples = 1\nvalue = 5.3"] ;
1099 -> 1125 ;
1126 [label="Corruption <= 0.9\nmse = 0.2\nsamples = 2\nvalue = 5.4"] ;
1094 -> 1126 ;
1127 [label="mse = 0.0\nsamples = 1\nvalue = 6.2"] ;
1126 -> 1127 ;
1128 [label="mse = 0.0\nsamples = 1\nvalue = 5.1"] ;
1126 -> 1128 ;
1129 [label="mse = 0.0\nsamples = 1\nvalue = 5.8"] ;
1093 -> 1129 ;
1130 [label="Health <= 62.5\nmse = 0.0\nsamples = 4\nvalue = 5.9"] ;
1090 -> 1130 ;
1131 [label="mse = 0.0\nsamples = 1\nvalue = 5.6"] ;
1130 -> 1131 ;
1132 [label="Generosity <= -0.2\nmse = 0.0\nsamples = 3\nvalue = 6.0"] ;
1130 -> 1132 ;
1133 [label="Support <= 0.9\nmse = 0.0\nsamples = 2\nvalue = 5.9"] ;
1132 -> 1133 ;
1134 [label="mse = 0.0\nsamples = 1\nvalue = 6.0"] ;
1133 -> 1134 ;
1135 [label="mse = 0.0\nsamples = 1\nvalue = 5.9"] ;
1133 -> 1135 ;
1136 [label="mse = 0.0\nsamples = 1\nvalue = 6.1"] ;
1132 -> 1136 ;
1137 [label="Support <= 0.9\nmse = 0.2\nsamples = 11\nvalue = 5.9"] ;
1089 -> 1137 ;
1138 [label="Support <= 0.9\nmse = 0.1\nsamples = 5\nvalue = 5.7"] ;
1137 -> 1138 ;
1139 [label="Corruption <= 0.9\nmse = 0.0\nsamples = 3\nvalue = 5.8"] ;
1138 -> 1139 ;
1140 [label="Support <= 0.9\nmse = 0.0\nsamples = 2\nvalue = 5.7"] ;
1139 -> 1140 ;
1141 [label="mse = 0.0\nsamples = 1\nvalue = 5.8"] ;
1140 -> 1141 ;
1142 [label="mse = -0.0\nsamples = 1\nvalue = 5.7"] ;
1140 -> 1142 ;
1143 [label="mse = -0.0\nsamples = 1\nvalue = 6.2"] ;
1139 -> 1143 ;
1144 [label="Health <= 64.6\nmse = 0.0\nsamples = 2\nvalue = 5.4"] ;
1138 -> 1144 ;
1145 [label="mse = 0.0\nsamples = 1\nvalue = 5.3"] ;
1144 -> 1145 ;
1146 [label="mse = 0.0\nsamples = 1\nvalue = 5.5"] ;
1144 -> 1146 ;
1147 [label="Generosity <= 0.5\nmse = 0.2\nsamples = 6\nvalue = 6.3"] ;
1137 -> 1147 ;
1148 [label="Freedom <= 0.9\nmse = 0.1\nsamples = 5\nvalue = 6.2"] ;
1147 -> 1148 ;
1149 [label="Freedom <= 0.8\nmse = 0.0\nsamples = 3\nvalue = 6.3"] ;
1148 -> 1149 ;
1150 [label="mse = 0.0\nsamples = 1\nvalue = 6.6"] ;
1149 -> 1150 ;
1151 [label="GDP <= 9.9\nmse = 0.0\nsamples = 2\nvalue = 6.3"] ;
1149 -> 1151 ;
1152 [label="mse = 0.0\nsamples = 1\nvalue = 6.3"] ;
1151 -> 1152 ;
1153 [label="mse = 0.0\nsamples = 1\nvalue = 6.2"] ;
1151 -> 1153 ;
1154 [label="Support <= 0.9\nmse = 0.0\nsamples = 2\nvalue = 5.8"] ;
1148 -> 1154 ;
1155 [label="mse = 0.0\nsamples = 1\nvalue = 5.6"] ;
1154 -> 1155 ;
1156 [label="mse = 0.0\nsamples = 1\nvalue = 5.9"] ;
1154 -> 1156 ;
1157 [label="mse = -0.0\nsamples = 1\nvalue = 7.0"] ;
1147 -> 1157 ;
1158 [label="GDP <= 10.6\nmse = 0.5\nsamples = 210\nvalue = 6.7"] ;
0 -> 1158 [labeldistance=2.5, labelangle=-45, headlabel="False"] ;
1159 [label="Support <= 0.9\nmse = 0.4\nsamples = 127\nvalue = 6.3"] ;
1158 -> 1159 ;
1160 [label="Corruption <= 0.9\nmse = 0.3\nsamples = 39\nvalue = 5.8"] ;
1159 -> 1160 ;
1161 [label="Freedom <= 0.7\nmse = 0.2\nsamples = 27\nvalue = 6.0"] ;
1160 -> 1161 ;
1162 [label="Generosity <= -0.1\nmse = 0.2\nsamples = 16\nvalue = 5.8"] ;
1161 -> 1162 ;
1163 [label="mse = 0.0\nsamples = 1\nvalue = 6.6"] ;
1162 -> 1163 ;
1164 [label="Health <= 68.7\nmse = 0.1\nsamples = 15\nvalue = 5.7"] ;
1162 -> 1164 ;
1165 [label="Generosity <= -0.1\nmse = 0.0\nsamples = 3\nvalue = 5.4"] ;
1164 -> 1165 ;
1166 [label="Health <= 68.4\nmse = 0.0\nsamples = 2\nvalue = 5.4"] ;
1165 -> 1166 ;
1167 [label="mse = 0.0\nsamples = 1\nvalue = 5.3"] ;
1166 -> 1167 ;
1168 [label="mse = 0.0\nsamples = 1\nvalue = 5.4"] ;
1166 -> 1168 ;
1169 [label="mse = -0.0\nsamples = 1\nvalue = 5.7"] ;
1165 -> 1169 ;
1170 [label="Support <= 0.8\nmse = 0.1\nsamples = 12\nvalue = 5.8"] ;
1164 -> 1170 ;
1171 [label="Health <= 72.9\nmse = 0.0\nsamples = 10\nvalue = 5.7"] ;
1170 -> 1171 ;
1172 [label="Freedom <= 0.7\nmse = 0.0\nsamples = 7\nvalue = 5.6"] ;
1171 -> 1172 ;
1173 [label="Corruption <= 0.9\nmse = 0.0\nsamples = 6\nvalue = 5.6"] ;
1172 -> 1173 ;
1174 [label="Support <= 0.8\nmse = 0.0\nsamples = 5\nvalue = 5.7"] ;
1173 -> 1174 ;
1175 [label="Freedom <= 0.7\nmse = 0.0\nsamples = 4\nvalue = 5.7"] ;
1174 -> 1175 ;
1176 [label="Support <= 0.8\nmse = 0.0\nsamples = 3\nvalue = 5.8"] ;
1175 -> 1176 ;
1177 [label="Health <= 70.7\nmse = 0.0\nsamples = 2\nvalue = 5.8"] ;
1176 -> 1177 ;
1178 [label="mse = 0.0\nsamples = 1\nvalue = 5.8"] ;
1177 -> 1178 ;
1179 [label="mse = 0.0\nsamples = 1\nvalue = 5.8"] ;
1177 -> 1179 ;
1180 [label="mse = -0.0\nsamples = 1\nvalue = 5.8"] ;
1176 -> 1180 ;
1181 [label="mse = 0.0\nsamples = 1\nvalue = 5.7"] ;
1175 -> 1181 ;
1182 [label="mse = -0.0\nsamples = 1\nvalue = 5.5"] ;
1174 -> 1182 ;
1183 [label="mse = -0.0\nsamples = 1\nvalue = 5.4"] ;
1173 -> 1183 ;
1184 [label="mse = -0.0\nsamples = 1\nvalue = 5.3"] ;
1172 -> 1184 ;
1185 [label="Corruption <= 0.9\nmse = 0.0\nsamples = 3\nvalue = 5.9"] ;
1171 -> 1185 ;
1186 [label="Freedom <= 0.6\nmse = 0.0\nsamples = 2\nvalue = 5.9"] ;
1185 -> 1186 ;
1187 [label="mse = 0.0\nsamples = 1\nvalue = 5.9"] ;
1186 -> 1187 ;
1188 [label="mse = 0.0\nsamples = 1\nvalue = 5.9"] ;
1186 -> 1188 ;
1189 [label="mse = 0.0\nsamples = 1\nvalue = 6.0"] ;
1185 -> 1189 ;
1190 [label="Support <= 0.9\nmse = 0.1\nsamples = 2\nvalue = 6.3"] ;
1170 -> 1190 ;
1191 [label="mse = 0.0\nsamples = 1\nvalue = 6.6"] ;
1190 -> 1191 ;
1192 [label="mse = 0.0\nsamples = 1\nvalue = 5.9"] ;
1190 -> 1192 ;
1193 [label="GDP <= 9.8\nmse = 0.1\nsamples = 11\nvalue = 6.3"] ;
1161 -> 1193 ;
1194 [label="Freedom <= 0.9\nmse = 0.1\nsamples = 4\nvalue = 5.9"] ;
1193 -> 1194 ;
1195 [label="Generosity <= -0.1\nmse = 0.0\nsamples = 3\nvalue = 6.0"] ;
1194 -> 1195 ;
1196 [label="mse = 0.0\nsamples = 1\nvalue = 5.8"] ;
1195 -> 1196 ;
1197 [label="Health <= 68.3\nmse = 0.0\nsamples = 2\nvalue = 6.1"] ;
1195 -> 1197 ;
1198 [label="mse = 0.0\nsamples = 1\nvalue = 6.1"] ;
1197 -> 1198 ;
1199 [label="mse = 0.0\nsamples = 1\nvalue = 6.1"] ;
1197 -> 1199 ;
1200 [label="mse = 0.0\nsamples = 1\nvalue = 5.3"] ;
1194 -> 1200 ;
1201 [label="Corruption <= 0.8\nmse = 0.0\nsamples = 7\nvalue = 6.5"] ;
1193 -> 1201 ;
1202 [label="Health <= 69.0\nmse = 0.0\nsamples = 6\nvalue = 6.5"] ;
1201 -> 1202 ;
1203 [label="Generosity <= -0.0\nmse = 0.0\nsamples = 3\nvalue = 6.4"] ;
1202 -> 1203 ;
1204 [label="Health <= 68.3\nmse = 0.0\nsamples = 2\nvalue = 6.4"] ;
1203 -> 1204 ;
1205 [label="mse = 0.0\nsamples = 1\nvalue = 6.4"] ;
1204 -> 1205 ;
1206 [label="mse = 0.0\nsamples = 1\nvalue = 6.4"] ;
1204 -> 1206 ;
1207 [label="mse = 0.0\nsamples = 1\nvalue = 6.4"] ;
1203 -> 1207 ;
1208 [label="GDP <= 10.0\nmse = 0.0\nsamples = 3\nvalue = 6.8"] ;
1202 -> 1208 ;
1209 [label="mse = 0.0\nsamples = 1\nvalue = 6.7"] ;
1208 -> 1209 ;
1210 [label="Corruption <= 0.8\nmse = 0.0\nsamples = 2\nvalue = 6.8"] ;
1208 -> 1210 ;
1211 [label="mse = 0.0\nsamples = 1\nvalue = 6.8"] ;
1210 -> 1211 ;
1212 [label="mse = 0.0\nsamples = 1\nvalue = 6.8"] ;
1210 -> 1212 ;
1213 [label="mse = 0.0\nsamples = 1\nvalue = 6.2"] ;
1201 -> 1213 ;
1214 [label="Freedom <= 0.7\nmse = 0.1\nsamples = 12\nvalue = 5.3"] ;
1160 -> 1214 ;
1215 [label="GDP <= 9.9\nmse = 0.1\nsamples = 6\nvalue = 5.5"] ;
1214 -> 1215 ;
1216 [label="mse = 0.0\nsamples = 1\nvalue = 5.9"] ;
1215 -> 1216 ;
1217 [label="Freedom <= 0.4\nmse = 0.0\nsamples = 5\nvalue = 5.4"] ;
1215 -> 1217 ;
1218 [label="mse = 0.0\nsamples = 1\nvalue = 5.1"] ;
1217 -> 1218 ;
1219 [label="Freedom <= 0.5\nmse = 0.0\nsamples = 4\nvalue = 5.4"] ;
1217 -> 1219 ;
1220 [label="mse = 0.0\nsamples = 1\nvalue = 5.3"] ;
1219 -> 1220 ;
1221 [label="Health <= 70.7\nmse = 0.0\nsamples = 3\nvalue = 5.4"] ;
1219 -> 1221 ;
1222 [label="Generosity <= -0.0\nmse = 0.0\nsamples = 2\nvalue = 5.4"] ;
1221 -> 1222 ;
1223 [label="mse = 0.0\nsamples = 1\nvalue = 5.4"] ;
1222 -> 1223 ;
1224 [label="mse = 0.0\nsamples = 1\nvalue = 5.4"] ;
1222 -> 1224 ;
1225 [label="mse = 0.0\nsamples = 1\nvalue = 5.4"] ;
1221 -> 1225 ;
1226 [label="Corruption <= 0.9\nmse = 0.1\nsamples = 6\nvalue = 5.1"] ;
1214 -> 1226 ;
1227 [label="mse = 0.0\nsamples = 1\nvalue = 5.8"] ;
1226 -> 1227 ;
1228 [label="Support <= 0.7\nmse = 0.0\nsamples = 5\nvalue = 5.0"] ;
1226 -> 1228 ;
1229 [label="mse = 0.0\nsamples = 1\nvalue = 4.5"] ;
1228 -> 1229 ;
1230 [label="Generosity <= -0.1\nmse = 0.0\nsamples = 4\nvalue = 5.1"] ;
1228 -> 1230 ;
1231 [label="Corruption <= 0.9\nmse = 0.0\nsamples = 2\nvalue = 5.1"] ;
1230 -> 1231 ;
1232 [label="mse = 0.0\nsamples = 1\nvalue = 5.1"] ;
1231 -> 1232 ;
1233 [label="mse = 0.0\nsamples = 1\nvalue = 5.1"] ;
1231 -> 1233 ;
1234 [label="Freedom <= 0.8\nmse = 0.0\nsamples = 2\nvalue = 5.0"] ;
1230 -> 1234 ;
1235 [label="mse = 0.0\nsamples = 1\nvalue = 5.0"] ;
1234 -> 1235 ;
1236 [label="mse = -0.0\nsamples = 1\nvalue = 5.0"] ;
1234 -> 1236 ;
1237 [label="Generosity <= 0.1\nmse = 0.3\nsamples = 88\nvalue = 6.5"] ;
1159 -> 1237 ;
1238 [label="Freedom <= 0.9\nmse = 0.2\nsamples = 64\nvalue = 6.3"] ;
1237 -> 1238 ;
1239 [label="GDP <= 10.0\nmse = 0.1\nsamples = 59\nvalue = 6.2"] ;
1238 -> 1239 ;
1240 [label="Generosity <= -0.0\nmse = 0.1\nsamples = 15\nvalue = 6.4"] ;
1239 -> 1240 ;
1241 [label="Health <= 70.4\nmse = 0.1\nsamples = 12\nvalue = 6.3"] ;
1240 -> 1241 ;
1242 [label="Freedom <= 0.7\nmse = 0.1\nsamples = 11\nvalue = 6.3"] ;
1241 -> 1242 ;
1243 [label="mse = 0.0\nsamples = 1\nvalue = 5.6"] ;
1242 -> 1243 ;
1244 [label="Generosity <= -0.1\nmse = 0.0\nsamples = 10\nvalue = 6.3"] ;
1242 -> 1244 ;
1245 [label="Support <= 0.9\nmse = 0.0\nsamples = 7\nvalue = 6.5"] ;
1244 -> 1245 ;
1246 [label="Freedom <= 0.8\nmse = 0.0\nsamples = 5\nvalue = 6.4"] ;
1245 -> 1246 ;
1247 [label="mse = 0.0\nsamples = 1\nvalue = 6.6"] ;
1246 -> 1247 ;
1248 [label="Generosity <= -0.1\nmse = 0.0\nsamples = 4\nvalue = 6.4"] ;
1246 -> 1248 ;
1249 [label="Health <= 69.0\nmse = 0.0\nsamples = 3\nvalue = 6.3"] ;
1248 -> 1249 ;
1250 [label="Support <= 0.9\nmse = 0.0\nsamples = 2\nvalue = 6.3"] ;
1249 -> 1250 ;
1251 [label="mse = 0.0\nsamples = 1\nvalue = 6.4"] ;
1250 -> 1251 ;
1252 [label="mse = -0.0\nsamples = 1\nvalue = 6.3"] ;
1250 -> 1252 ;
1253 [label="mse = 0.0\nsamples = 1\nvalue = 6.4"] ;
1249 -> 1253 ;
1254 [label="mse = 0.0\nsamples = 1\nvalue = 6.6"] ;
1248 -> 1254 ;
1255 [label="Freedom <= 0.8\nmse = 0.0\nsamples = 2\nvalue = 6.6"] ;
1245 -> 1255 ;
1256 [label="mse = 0.0\nsamples = 1\nvalue = 6.7"] ;
1255 -> 1256 ;
1257 [label="mse = 0.0\nsamples = 1\nvalue = 6.6"] ;
1255 -> 1257 ;
1258 [label="GDP <= 10.0\nmse = 0.0\nsamples = 3\nvalue = 6.2"] ;
1244 -> 1258 ;
1259 [label="Freedom <= 0.9\nmse = 0.0\nsamples = 2\nvalue = 6.1"] ;
1258 -> 1259 ;
1260 [label="mse = 0.0\nsamples = 1\nvalue = 6.1"] ;
1259 -> 1260 ;
1261 [label="mse = 0.0\nsamples = 1\nvalue = 6.2"] ;
1259 -> 1261 ;
1262 [label="mse = 0.0\nsamples = 1\nvalue = 6.3"] ;
1258 -> 1262 ;
1263 [label="mse = 0.0\nsamples = 1\nvalue = 7.1"] ;
1241 -> 1263 ;
1264 [label="Corruption <= 0.9\nmse = 0.1\nsamples = 3\nvalue = 6.9"] ;
1240 -> 1264 ;
1265 [label="Corruption <= 0.8\nmse = 0.0\nsamples = 2\nvalue = 6.7"] ;
1264 -> 1265 ;
1266 [label="mse = 0.0\nsamples = 1\nvalue = 6.9"] ;
1265 -> 1266 ;
1267 [label="mse = 0.0\nsamples = 1\nvalue = 6.6"] ;
1265 -> 1267 ;
1268 [label="mse = -0.0\nsamples = 1\nvalue = 7.3"] ;
1264 -> 1268 ;
1269 [label="Support <= 0.9\nmse = 0.1\nsamples = 44\nvalue = 6.2"] ;
1239 -> 1269 ;
1270 [label="GDP <= 10.2\nmse = 0.1\nsamples = 41\nvalue = 6.1"] ;
1269 -> 1270 ;
1271 [label="Support <= 0.9\nmse = 0.0\nsamples = 4\nvalue = 5.8"] ;
1270 -> 1271 ;
1272 [label="Health <= 70.3\nmse = 0.0\nsamples = 2\nvalue = 6.0"] ;
1271 -> 1272 ;
1273 [label="mse = 0.0\nsamples = 1\nvalue = 6.0"] ;
1272 -> 1273 ;
1274 [label="mse = 0.0\nsamples = 1\nvalue = 6.0"] ;
1272 -> 1274 ;
1275 [label="Support <= 0.9\nmse = 0.0\nsamples = 2\nvalue = 5.6"] ;
1271 -> 1275 ;
1276 [label="mse = 0.0\nsamples = 1\nvalue = 5.5"] ;
1275 -> 1276 ;
1277 [label="mse = 0.0\nsamples = 1\nvalue = 5.6"] ;
1275 -> 1277 ;
1278 [label="Health <= 74.2\nmse = 0.1\nsamples = 37\nvalue = 6.2"] ;
1270 -> 1278 ;
1279 [label="GDP <= 10.5\nmse = 0.1\nsamples = 33\nvalue = 6.2"] ;
1278 -> 1279 ;
1280 [label="Freedom <= 0.9\nmse = 0.1\nsamples = 28\nvalue = 6.1"] ;
1279 -> 1280 ;
1281 [label="GDP <= 10.3\nmse = 0.0\nsamples = 25\nvalue = 6.2"] ;
1280 -> 1281 ;
1282 [label="Freedom <= 0.7\nmse = 0.0\nsamples = 3\nvalue = 6.5"] ;
1281 -> 1282 ;
1283 [label="mse = 0.0\nsamples = 1\nvalue = 6.7"] ;
1282 -> 1283 ;
1284 [label="Health <= 68.5\nmse = 0.0\nsamples = 2\nvalue = 6.4"] ;
1282 -> 1284 ;
1285 [label="mse = 0.0\nsamples = 1\nvalue = 6.3"] ;
1284 -> 1285 ;
1286 [label="mse = -0.0\nsamples = 1\nvalue = 6.5"] ;
1284 -> 1286 ;
1287 [label="Freedom <= 0.6\nmse = 0.0\nsamples = 22\nvalue = 6.2"] ;
1281 -> 1287 ;
1288 [label="Support <= 0.9\nmse = 0.0\nsamples = 3\nvalue = 6.0"] ;
1287 -> 1288 ;
1289 [label="mse = 0.0\nsamples = 1\nvalue = 5.8"] ;
1288 -> 1289 ;
1290 [label="Corruption <= 0.9\nmse = 0.0\nsamples = 2\nvalue = 6.0"] ;
1288 -> 1290 ;
1291 [label="mse = 0.0\nsamples = 1\nvalue = 6.0"] ;
1290 -> 1291 ;
1292 [label="mse = 0.0\nsamples = 1\nvalue = 6.1"] ;
1290 -> 1292 ;
1293 [label="Health <= 68.8\nmse = 0.0\nsamples = 19\nvalue = 6.2"] ;
1287 -> 1293 ;
1294 [label="Support <= 0.9\nmse = 0.0\nsamples = 4\nvalue = 6.0"] ;
1293 -> 1294 ;
1295 [label="GDP <= 10.4\nmse = 0.0\nsamples = 2\nvalue = 6.1"] ;
1294 -> 1295 ;
1296 [label="mse = 0.0\nsamples = 1\nvalue = 6.1"] ;
1295 -> 1296 ;
1297 [label="mse = 0.0\nsamples = 1\nvalue = 6.1"] ;
1295 -> 1297 ;
1298 [label="Generosity <= -0.1\nmse = 0.0\nsamples = 2\nvalue = 6.0"] ;
1294 -> 1298 ;
1299 [label="mse = 0.0\nsamples = 1\nvalue = 6.0"] ;
1298 -> 1299 ;
1300 [label="mse = 0.0\nsamples = 1\nvalue = 5.9"] ;
1298 -> 1300 ;
1301 [label="Corruption <= 0.8\nmse = 0.0\nsamples = 15\nvalue = 6.2"] ;
1293 -> 1301 ;
1302 [label="Freedom <= 0.8\nmse = 0.0\nsamples = 8\nvalue = 6.2"] ;
1301 -> 1302 ;
1303 [label="Support <= 0.9\nmse = 0.0\nsamples = 4\nvalue = 6.0"] ;
1302 -> 1303 ;
1304 [label="Corruption <= 0.8\nmse = 0.0\nsamples = 2\nvalue = 5.9"] ;
1303 -> 1304 ;
1305 [label="mse = 0.0\nsamples = 1\nvalue = 5.8"] ;
1304 -> 1305 ;
1306 [label="mse = 0.0\nsamples = 1\nvalue = 5.9"] ;
1304 -> 1306 ;
1307 [label="Health <= 73.2\nmse = 0.0\nsamples = 2\nvalue = 6.1"] ;
1303 -> 1307 ;
1308 [label="mse = 0.0\nsamples = 1\nvalue = 6.2"] ;
1307 -> 1308 ;
1309 [label="mse = -0.0\nsamples = 1\nvalue = 6.1"] ;
1307 -> 1309 ;
1310 [label="Generosity <= -0.1\nmse = 0.0\nsamples = 4\nvalue = 6.3"] ;
1302 -> 1310 ;
1311 [label="GDP <= 10.4\nmse = 0.0\nsamples = 2\nvalue = 6.2"] ;
1310 -> 1311 ;
1312 [label="mse = -0.0\nsamples = 1\nvalue = 6.2"] ;
1311 -> 1312 ;
1313 [label="mse = 0.0\nsamples = 1\nvalue = 6.2"] ;
1311 -> 1313 ;
1314 [label="Corruption <= 0.7\nmse = 0.0\nsamples = 2\nvalue = 6.3"] ;
1310 -> 1314 ;
1315 [label="mse = 0.0\nsamples = 1\nvalue = 6.3"] ;
1314 -> 1315 ;
1316 [label="mse = 0.0\nsamples = 1\nvalue = 6.3"] ;
1314 -> 1316 ;
1317 [label="Freedom <= 0.8\nmse = 0.0\nsamples = 7\nvalue = 6.3"] ;
1301 -> 1317 ;
1318 [label="GDP <= 10.5\nmse = 0.0\nsamples = 6\nvalue = 6.3"] ;
1317 -> 1318 ;
1319 [label="Corruption <= 0.8\nmse = 0.0\nsamples = 4\nvalue = 6.2"] ;
1318 -> 1319 ;
1320 [label="mse = 0.0\nsamples = 1\nvalue = 6.3"] ;
1319 -> 1320 ;
1321 [label="Generosity <= -0.1\nmse = 0.0\nsamples = 3\nvalue = 6.2"] ;
1319 -> 1321 ;
1322 [label="Corruption <= 0.9\nmse = 0.0\nsamples = 2\nvalue = 6.2"] ;
1321 -> 1322 ;
1323 [label="mse = 0.0\nsamples = 1\nvalue = 6.2"] ;
1322 -> 1323 ;
1324 [label="mse = 0.0\nsamples = 1\nvalue = 6.2"] ;
1322 -> 1324 ;
1325 [label="mse = 0.0\nsamples = 1\nvalue = 6.2"] ;
1321 -> 1325 ;
1326 [label="Health <= 73.2\nmse = 0.0\nsamples = 2\nvalue = 6.4"] ;
1318 -> 1326 ;
1327 [label="mse = 0.0\nsamples = 1\nvalue = 6.4"] ;
1326 -> 1327 ;
1328 [label="mse = -0.0\nsamples = 1\nvalue = 6.5"] ;
1326 -> 1328 ;
1329 [label="mse = -0.0\nsamples = 1\nvalue = 6.8"] ;
1317 -> 1329 ;
1330 [label="Freedom <= 0.9\nmse = 0.0\nsamples = 3\nvalue = 5.9"] ;
1280 -> 1330 ;
1331 [label="mse = 0.0\nsamples = 1\nvalue = 5.7"] ;
1330 -> 1331 ;
1332 [label="Freedom <= 0.9\nmse = 0.0\nsamples = 2\nvalue = 6.0"] ;
1330 -> 1332 ;
1333 [label="mse = 0.0\nsamples = 1\nvalue = 6.1"] ;
1332 -> 1333 ;
1334 [label="mse = 0.0\nsamples = 1\nvalue = 5.9"] ;
1332 -> 1334 ;
1335 [label="Health <= 72.6\nmse = 0.0\nsamples = 5\nvalue = 6.6"] ;
1279 -> 1335 ;
1336 [label="Freedom <= 0.8\nmse = 0.0\nsamples = 2\nvalue = 6.9"] ;
1335 -> 1336 ;
1337 [label="mse = 0.0\nsamples = 1\nvalue = 7.0"] ;
1336 -> 1337 ;
1338 [label="mse = 0.0\nsamples = 1\nvalue = 6.8"] ;
1336 -> 1338 ;
1339 [label="Generosity <= -0.1\nmse = 0.0\nsamples = 3\nvalue = 6.5"] ;
1335 -> 1339 ;
1340 [label="mse = 0.0\nsamples = 1\nvalue = 6.7"] ;
1339 -> 1340 ;
1341 [label="Generosity <= -0.1\nmse = 0.0\nsamples = 2\nvalue = 6.5"] ;
1339 -> 1341 ;
1342 [label="mse = 0.0\nsamples = 1\nvalue = 6.5"] ;
1341 -> 1342 ;
1343 [label="mse = 0.0\nsamples = 1\nvalue = 6.5"] ;
1341 -> 1343 ;
1344 [label="Corruption <= 0.7\nmse = 0.0\nsamples = 4\nvalue = 5.9"] ;
1278 -> 1344 ;
1345 [label="Corruption <= 0.6\nmse = 0.0\nsamples = 3\nvalue = 5.9"] ;
1344 -> 1345 ;
1346 [label="Corruption <= 0.6\nmse = 0.0\nsamples = 2\nvalue = 5.9"] ;
1345 -> 1346 ;
